SVM-light Version V6.20
2 # kernel type
3 # kernel parameter -d 
16 # kernel parameter -g 
1 # kernel parameter -s 
1 # kernel parameter -r 
empty# kernel parameter -u 
10 # highest feature index 
12 # number of training documents 
1105 # number of support vectors plus 1 
0 # threshold b, each following line is a SV (starting with alpha*y)
0.0087888575006094260544386997935362 1:0.88573074 2:0.90567899 3:0.83499998 4:0.90499997 5:0.73750001 6:0.63 7:0.7525 8:0.66250002 9:0 #
0.01098607187576178256804837474192 1:0.82527369 2:0.7214815 3:0.72250003 4:0.82999998 5:0.70249999 6:0.77749997 7:0.70749998 8:0.72500002 9:0 #
-0.028563786876980634676925774328993 1:0.75229502 2:0.64395064 3:0.79750001 4:0.75 5:0.78250003 6:0.85000002 7:0.78250003 8:0.75 9:1 #
-0.021972143751523565136096749483841 1:0.90109468 2:0.85234571 3:0.6225 4:0.83749998 5:0.73500001 6:0.60500002 7:0.77499998 8:0.59500003 9:1 #
0.021972143751523565136096749483841 1:0.86268485 2:0.81580245 3:0.625 4:0.64499998 5:0.65499997 6:0.51999998 7:0.61500001 8:0.5 9:1 #
-0.028563786876980634676925774328993 1:0.83771843 2:0.80345678 3:0.8175 4:0.88499999 5:0.85500002 6:0.815 7:0.86000001 8:0.69999999 9:1 #
-0.015380500626066495595267724638688 1:0.89748418 2:0.90024692 3:0.6825 4:0.74000001 5:0.73000002 6:0.56999999 7:0.72000003 8:-0.25 9:0 #
-0.028563786876980634676925774328993 1:0.90977532 2:0.79703707 3:0.6875 4:0.72500002 5:0.76749998 6:0.65750003 7:0.745 8:0.60500002 9:1 #
0.021972143751523565136096749483841 1:0.86368352 2:0.69728392 3:0.625 4:0.67750001 5:0.57249999 6:0.58999997 7:0.66000003 8:0.57499999 9:1 #
0.021972143751523565136096749483841 1:0.88768965 2:0.92938274 3:0.73750001 4:0.78500003 5:0.80500001 6:0.68000001 7:0.76499999 8:0.64749998 9:0 #
0.026366572501828278163316099380609 1:0.81375074 2:0.7145679 3:0.67500001 4:0.78250003 5:0.59500003 6:0.53500003 7:0.57999998 8:0.63499999 9:1 #
-0.028563786876980634676925774328993 1:0.88573074 2:0.91604936 3:0.74250001 4:0.89249998 5:0.76249999 6:0.6925 7:0.755 8:0.64499998 9:1 #
0.013183286250914139081658049690304 1:0.95774919 2:0.6948148 3:0.60000002 4:0.58999997 5:0.64999998 6:0.58999997 7:0.59750003 8:0.4375 9:1 #
0.015380500626066495595267724638688 1:0.85600156 2:0.71604937 3:0.63749999 4:0.73250002 5:0.63 6:0.60750002 7:0.69749999 8:0.65499997 9:0 #
-0.017577715001218852108877399587072 1:0.72268099 2:0.60740739 3:0.80500001 4:0.65249997 5:0.79250002 6:0.875 7:0.8075 8:0.76249999 9:0 #
-0.028563786876980634676925774328993 1:0.85250622 2:0.93679011 3:0.79250002 4:0.82749999 5:0.8125 6:0.6225 7:0.73750001 8:0.74250001 9:1 #
-0.028563786876980634676925774328993 1:0.74956787 2:0.94222224 3:0.78500003 4:0.84500003 5:0.83749998 6:0.75999999 7:0.80250001 8:0.82249999 9:1 #
-0.013183286250914139081658049690304 1:0.85216057 2:0.65382713 3:0.745 4:0.83249998 5:0.745 6:0.61000001 7:0.77999997 8:0.52249998 9:1 #
-0.028563786876980634676925774328993 1:0.84924144 2:0.90172839 3:0.78250003 4:0.89749998 5:0.79250002 6:0.745 7:0.80000001 8:0.66750002 9:1 #
-0.015380500626066495595267724638688 1:0.82331479 2:0.76296294 3:0.77249998 4:0.77499998 5:0.82499999 6:0.64249998 7:0.75749999 8:0.78250003 9:1 #
0.019774929376371208622487074535456 1:0.85792202 2:0.67901236 3:0.67750001 4:0.79000002 5:0.72500002 6:0.63499999 7:0.6925 8:0.4375 9:0 #
-0.017577715001218852108877399587072 1:0.89245248 2:0.74172837 3:0.35749999 4:0.42750001 5:0.285 6:0.25 7:0.2075 8:-0.25 9:0 #
-0.024169358126675921649706424432225 1:0.85980409 2:0.94271606 3:0.76499999 4:0.86500001 5:0.89999998 6:0.69499999 7:0.82999998 8:0.80500001 9:0 #
0.017577715001218852108877399587072 1:0.93067026 2:0.68691361 3:0.65750003 4:0.5625 5:0.6875 6:0.65750003 7:0.65750003 8:0.5 9:0 #
0.0043944287503047130272193498967681 1:0.90589589 2:0.7254321 3:0.64999998 4:0.64999998 5:0.63 6:0.54000002 7:0.64999998 8:0.60750002 9:0 #
0.0021972143751523565136096749483841 1:0.83940852 2:0.90123457 3:0.405 4:0.72500002 5:0.38 6:0.435 7:0.48500001 8:-0.25 9:1 #
-0.024169358126675921649706424432225 1:0.82527369 2:0.96543211 3:0.69749999 4:0.88999999 5:0.755 6:0.625 7:0.65750003 8:0.69999999 9:1 #
-0.024169358126675921649706424432225 1:0.78778565 2:0.84790123 3:0.7525 4:0.80000001 5:0.79500002 6:0.70999998 7:0.76249999 8:0.75 9:1 #
0.0021972143751523565136096749483841 1:0.94526601 2:0.55604941 3:0.565 4:0.52499998 5:0.64249998 6:0.44 7:0.50749999 8:0.5625 9:0 #
0.017577715001218852108877399587072 1:0.8601498 2:0.97333336 3:0.53250003 4:0.80000001 5:0.63249999 6:0.60500002 7:0.58249998 8:0.51999998 9:1 #
-0.024169358126675921649706424432225 1:0.83648932 2:0.80740738 3:0.80500001 4:0.80500001 5:0.8175 6:0.74000001 7:0.70999998 8:0.71249998 9:1 #
0.01098607187576178256804837474192 1:0.87432301 2:0.93037039 3:0.67000002 4:0.875 5:0.65750003 6:0.70749998 7:0.61750001 8:0.51499999 9:1 #
0.024169358126675921649706424432225 1:0.84063762 2:0.81925929 3:0.58749998 4:0.69 5:0.63999999 6:0.60000002 7:0.54750001 8:0.57999998 9:1 #
0.021972143751523565136096749483841 1:0.8097561 2:0.95160496 3:0.59500003 4:0.8075 5:0.51999998 6:0.51999998 7:0.58249998 8:0.59500003 9:1 #
0.015380500626066495595267724638688 1:0.82696372 2:0.84691358 3:0.59500003 4:0.5575 5:0.56 6:0.38749999 7:0.53500003 8:0.41749999 9:0 #
0.017577715001218852108877399587072 1:0.87674284 2:0.88246912 3:0.625 4:0.72250003 5:0.69499999 6:0.73000002 7:0.48500001 8:0.5625 9:0 #
-0.024169358126675921649706424432225 1:0.94430572 2:0.76148146 3:0.69749999 4:0.61750001 5:0.79500002 6:0.60750002 7:0.70249999 8:0.60500002 9:1 #
0.019774929376371208622487074535456 1:0.88208181 2:0.82222223 3:0.61750001 4:0.875 5:0.60000002 6:0.5675 7:0.63249999 8:0.5 9:0 #
-0.028563786876980634676925774328993 1:0.65738428 2:0.7432099 3:0.66250002 4:0.8125 5:0.73000002 6:0.72250003 7:0.72750002 8:0.75 9:1 #
0.013183286250914139081658049690304 1:0.85807568 2:0.88049382 3:0.61000001 4:0.6875 5:0.59500003 6:0.47 7:0.57249999 8:-0.25 9:1 #
0.021972143751523565136096749483841 1:0.82696372 2:0.854321 3:0.685 4:0.67000002 5:0.64499998 6:0.51499999 7:0.58249998 8:0.5 9:0 #
0.0021972143751523565136096749483841 1:0.85024005 2:0.91703701 3:0.48500001 4:0.85000002 5:0.47999999 6:0.4075 7:0.40000001 8:0.51499999 9:0 #
0.019774929376371208622487074535456 1:0.84447861 2:0.825679 3:0.77749997 4:0.77749997 5:0.83749998 6:0.75 7:0.79250002 8:0.6275 9:0 #
0.017577715001218852108877399587072 1:0.95970809 2:0.81827158 3:0.77749997 4:0.63249999 5:0.70749998 6:0.70499998 7:0.73500001 8:0.5 9:0 #
0.0021972143751523565136096749483841 1:0.8905704 2:0.81975311 3:0.69749999 4:0.63749999 5:0.72250003 6:0.64499998 7:0.64499998 8:0.60000002 9:1 #
0.01098607187576178256804837474192 1:0.85404265 2:0.61679012 3:0.66750002 4:0.60500002 5:0.78250003 6:0.84500003 7:0.66750002 8:0.5575 9:0 #
-0.028563786876980634676925774328993 1:0.86940658 2:0.97777778 3:0.76999998 4:0.815 5:0.82499999 6:0.69749999 7:0.77749997 8:0.76249999 9:1 #
-0.026366572501828278163316099380609 1:0.84831959 2:0.82074076 3:0.78250003 4:0.82499999 5:0.75999999 6:0.59750003 7:0.70749998 8:0.75999999 9:1 #
0.015380500626066495595267724638688 1:0.92175919 2:0.78864199 3:0.61750001 4:0.76499999 5:0.56 6:0.41249999 7:0.51499999 8:0.69999999 9:1 #
0.0087888575006094260544386997935362 1:0.9366622 2:0.88543212 3:0.57749999 4:0.71749997 5:0.53250003 6:0.51999998 7:0.50999999 8:0.25 9:0 #
0.0021972143751523565136096749483841 1:0.85600156 2:0.58024693 3:0.77499998 4:0.5 5:0.75 6:0.625 7:0.69999999 8:0.75 9:1 #
-0.028563786876980634676925774328993 1:0.82296908 2:0.78962964 3:0.91250002 4:0.80500001 5:0.82749999 6:0.90750003 7:0.82999998 8:0.79500002 9:0 #
0.0021972143751523565136096749483841 1:0.87136549 2:0.51506174 3:0.58499998 4:0.84750003 5:0.54500002 6:0.41749999 7:0.565 8:0.4075 9:0 #
0.017577715001218852108877399587072 1:0.90013444 2:0.79901236 3:0.69749999 4:0.69749999 5:0.70499998 6:0.59500003 7:0.69 8:0.59249997 9:0 #
0.021972143751523565136096749483841 1:0.88930285 2:0.80839509 3:0.66000003 4:0.61250001 5:0.58999997 6:0.52749997 7:0.54500002 8:0.39250001 9:0 #
-0.019774929376371208622487074535456 1:0.85308242 2:0.8493827 3:0.67000002 4:0.88249999 5:0.7525 6:0.64249998 7:0.66750002 8:0.72250003 9:1 #
0.015380500626066495595267724638688 1:0.9049741 2:0.78320986 3:0.69499999 4:0.565 5:0.685 6:0.55000001 7:0.60250002 8:0.52749997 9:1 #
0.019774929376371208622487074535456 1:0.95525253 2:0.82913578 3:0.54250002 4:0.75 5:0.47999999 6:0.54500002 7:0.47499999 8:0.53250003 9:1 #
0.013183286250914139081658049690304 1:0.91165739 2:0.79555553 3:0.59249997 4:0.80500001 5:0.63999999 6:0.53750002 7:0.57999998 8:-0.25 9:1 #
0.015380500626066495595267724638688 1:0.77722299 2:0.91259259 3:0.76749998 4:0.72000003 5:0.74000001 6:0.64249998 7:0.69999999 8:0.76749998 9:0 #
0.019774929376371208622487074535456 1:0.80218935 2:0.8958025 3:0.71749997 4:0.85750002 5:0.75749999 6:0.66500002 7:0.69499999 8:0.57749999 9:1 #
-0.024169358126675921649706424432225 1:0.78686386 2:0.80000001 3:0.79750001 4:0.84500003 5:0.80000001 6:0.75 7:0.76499999 8:0.66750002 9:1 #
0.015380500626066495595267724638688 1:0.93854427 2:0.65283948 3:0.70499998 4:0.6825 5:0.6875 6:0.67750001 7:0.63749999 8:0.58999997 9:0 #
-0.0087888575006094260544386997935362 1:0.83003646 2:0.88 3:0.77499998 4:0.86250001 5:0.85000002 6:0.75999999 7:0.815 8:0.68000001 9:0 #
-0.028563786876980634676925774328993 1:0.86944497 2:0.8296296 3:0.73000002 4:0.82999998 5:0.76999998 6:0.65750003 7:0.72000003 8:0.73250002 9:1 #
-0.028563786876980634676925774328993 1:0.94526601 2:0.95259261 3:0.68000001 4:0.85000002 5:0.55000001 6:0.5625 7:0.58499998 8:0.625 9:1 #
-0.019774929376371208622487074535456 1:0.86894566 2:0.95209879 3:0.77749997 4:0.90249997 5:0.79750001 6:0.94499999 7:0.76999998 8:0.70499998 9:0 #
0.021972143751523565136096749483841 1:0.74845397 2:0.92839503 3:0.70999998 4:0.82249999 5:0.70499998 6:0.67250001 7:0.75 8:0.67250001 9:0 #
0.0021972143751523565136096749483841 1:0.92702132 2:0.85037035 3:0.6825 4:0.72750002 5:0.72250003 6:0.56 7:0.60000002 8:0.56 9:0 #
-0.028563786876980634676925774328993 1:0.82907623 2:0.93975312 3:0.63999999 4:0.70249999 5:0.68000001 6:0.59750003 7:0.59249997 8:0.83249998 9:0 #
-0.0087888575006094260544386997935362 1:0.82753986 2:0.89679015 3:0.65499997 4:0.81 5:0.66000003 6:0.57249999 7:0.565 8:0.63749999 9:0 #
0.021972143751523565136096749483841 1:0.73539466 2:0.8562963 3:0.73250002 4:0.74000001 5:0.69999999 6:0.64499998 7:0.71249998 8:0.67500001 9:0 #
0.0021972143751523565136096749483841 1:0.91933936 2:0.88987654 3:0.64249998 4:0.64999998 5:0.63499999 6:0.32749999 7:0.60000002 8:-0.25 9:1 #
0.024169358126675921649706424432225 1:0.78490496 2:0.64987653 3:0.67250001 4:0.66500002 5:0.73500001 6:0.50999999 7:0.64499998 8:0.67750001 9:1 #
-0.019774929376371208622487074535456 1:0.8207413 2:0.54469138 3:0.92000002 4:0.8775 5:0.84750003 6:0.81 7:0.74250001 8:0.96749997 9:1 #
0.0087888575006094260544386997935362 1:0.90977532 2:0.82074076 3:0.54250002 4:0.83249998 5:0.44499999 6:0.51499999 7:0.3475 8:-0.25 9:1 #
-0.013183286250914139081658049690304 1:0.98893797 2:0.64740741 3:0.78250003 4:0.59500003 5:0.72000003 6:0.65750003 7:0.625 8:-0.25 9:1 #
0.0021972143751523565136096749483841 1:0.89437294 2:0.80296296 3:0.73500001 4:0.95749998 5:0.66750002 6:0.47 7:0.61750001 8:-0.25 9:1 #
0.017577715001218852108877399587072 1:0.85081619 2:0.90370369 3:0.57499999 4:0.84750003 5:0.55250001 6:0.59500003 7:0.64999998 8:0.51749998 9:0 #
-0.024169358126675921649706424432225 1:0.85657769 2:0.81185186 3:0.79250002 4:0.75749999 5:0.77999997 6:0.86750001 7:0.7525 8:0.82249999 9:0 #
-0.015380500626066495595267724638688 1:0.79377759 2:0.86271608 3:0.72500002 4:0.92750001 5:0.79250002 6:0.58249998 7:0.5575 8:1 9:1 #
-0.015380500626066495595267724638688 1:0.91937774 2:0.82123458 3:0.67500001 4:0.63 5:0.5625 6:0.58249998 7:0.62 8:0.625 9:0 #
0.01098607187576178256804837474192 1:0.84828115 2:0.8296296 3:0.74250001 4:0.77499998 5:0.72250003 6:0.58749998 7:0.68000001 8:0.60000002 9:1 #
0.015380500626066495595267724638688 1:0.73501056 2:0.50518519 3:0.625 4:0.66000003 5:0.67000002 6:0.55000001 7:0.59500003 8:0.53250003 9:1 #
-0.0065916431254570695408290248451522 1:0.84636068 2:0.8493827 3:0.36750001 4:0.77249998 5:0.3475 6:0.3075 7:0.3475 8:0.4375 9:0 #
0.021972143751523565136096749483841 1:0.86268485 2:0.82222223 3:0.62 4:0.77499998 5:0.57249999 6:0.44999999 7:0.56999999 8:0.53750002 9:1 #
0.017577715001218852108877399587072 1:0.85980409 2:0.83999997 3:0.69 4:0.82249999 5:0.64749998 6:0.58249998 7:0.63499999 8:0.58249998 9:1 #
0.015380500626066495595267724638688 1:0.90977532 2:0.78518516 3:0.64749998 4:0.70499998 5:0.67000002 6:0.46000001 7:0.62 8:0.5 9:1 #
0.017577715001218852108877399587072 1:0.8394469 2:0.93580246 3:0.63749999 4:0.86000001 5:0.5675 6:0.61000001 7:0.625 8:0.60500002 9:1 #
0.01098607187576178256804837474192 1:0.7730363 2:0.94567901 3:0.66500002 4:0.95749998 5:0.68000001 6:0.58749998 7:0.68000001 8:0.61000001 9:1 #
0.015380500626066495595267724638688 1:0.71910888 2:0.92592591 3:0.51249999 4:0.72500002 5:0.5625 6:0.38999999 7:0.48750001 8:0.5 9:0 #
0.01098607187576178256804837474192 1:0.86429805 2:0.97234565 3:0.52749997 4:0.81 5:0.41499999 6:0.33750001 7:0.4425 8:0.58249998 9:1 #
-0.013183286250914139081658049690304 1:0.92859614 2:0.95555556 3:0.58249998 4:0.95749998 5:0.29249999 6:0.5 7:0.29249999 8:-0.25 9:1 #
0.026366572501828278163316099380609 1:0.81294411 2:0.65530866 3:0.59750003 4:0.72500002 5:0.59500003 6:0.51999998 7:0.57749999 8:0.57749999 9:1 #
0.015380500626066495595267724638688 1:0.93481851 2:0.85382718 3:0.48249999 4:0.7525 5:0.52999997 6:0.61500001 7:0.48500001 8:0.47749999 9:0 #
0.01098607187576178256804837474192 1:0.81451893 2:0.83802468 3:0.57999998 4:0.82999998 5:0.41999999 6:0.41749999 7:0.38249999 8:0.75 9:1 #
-0.021972143751523565136096749483841 1:0.76473975 2:0.85333335 3:0.745 4:0.85250002 5:0.7525 6:0.72750002 7:0.745 8:0.75 9:0 #
0.01098607187576178256804837474192 1:0.87866336 2:0.75259256 3:0.73250002 4:0.67750001 5:0.6825 6:0.49000001 7:0.65249997 8:0.71249998 9:1 #
-0.013183286250914139081658049690304 1:0.95586711 2:0.90814817 3:0.4375 4:0.71249998 5:0.26249999 6:0.45750001 7:0.3125 8:0.5 9:1 #
0.026366572501828278163316099380609 1:0.83679664 2:0.87555557 3:0.66500002 4:0.78500003 5:0.6825 6:0.66250002 7:0.67250001 8:0.5 9:0 #
0.017577715001218852108877399587072 1:0.88092953 2:0.6641975 3:0.6925 4:0.69999999 5:0.64999998 6:0.59750003 7:0.6925 8:0.66750002 9:1 #
0.021972143751523565136096749483841 1:0.76954103 2:0.86962962 3:0.75 4:0.80000001 5:0.70249999 6:0.64999998 7:0.69749999 8:0.6925 9:0 #
0.01098607187576178256804837474192 1:0.97891301 2:0.74172837 3:0.54500002 4:0.76499999 5:0.44 6:0.4325 7:0.47 8:0.375 9:1 #
0.026366572501828278163316099380609 1:0.76573843 2:0.82222223 3:0.62 4:0.71249998 5:0.5675 6:0.5 7:0.57499999 8:0.54750001 9:1 #
0.015380500626066495595267724638688 1:0.77722299 2:0.8691358 3:0.755 4:0.8175 5:0.76999998 6:0.70499998 7:0.75 8:0.71499997 9:0 #
-0.013183286250914139081658049690304 1:0.80218935 2:0.89530861 3:0.66500002 4:0.73500001 5:0.65249997 6:0.5625 7:0.64749998 8:0.69 9:0 #
0.0043944287503047130272193498967681 1:0.77568656 2:0.83012348 3:0.74000001 4:0.89749998 5:0.69499999 6:0.61250001 7:0.67250001 8:0.6825 9:1 #
-0.013183286250914139081658049690304 1:0.8655656 2:0.24543209 3:0.69749999 4:0.78250003 5:0.63249999 6:0.55000001 7:0.57749999 8:0.52749997 9:1 #
-0.017577715001218852108877399587072 1:0.75609756 2:0 3:0.73500001 4:0.8125 5:0.84249997 6:0.72000003 7:0.76249999 8:0.71499997 9:1 #
-0.015380500626066495595267724638688 1:0.81375074 2:0.72395062 3:0.60750002 4:0.92750001 5:0.64249998 6:0.5 7:0.53500003 8:-0.25 9:0 #
0.01098607187576178256804837474192 1:0.68008453 2:0.76987654 3:0.72750002 4:0.86750001 5:0.72250003 6:0.70749998 7:0.66750002 8:0.57999998 9:1 #
-0.028563786876980634676925774328993 1:0.87067407 2:0.91901237 3:0.69999999 4:0.85000002 5:0.72500002 6:0.67500001 7:0.625 8:0.75 9:1 #
-0.013183286250914139081658049690304 1:0.89053196 2:0.28098765 3:0.685 4:0.6825 5:0.63 6:0.59249997 7:0.60500002 8:0.58249998 9:0 #
0.019774929376371208622487074535456 1:0.73309004 2:0.83555555 3:0.66250002 4:0.90750003 5:0.60250002 6:0.53250003 7:0.63249999 8:0.53500003 9:0 #
-0.028563786876980634676925774328993 1:0.78302288 2:0.88987654 3:0.76999998 4:0.82999998 5:0.83249998 6:0.75 7:0.78250003 8:0.89249998 9:0 #
0.021972143751523565136096749483841 1:0.88573074 2:0.67160493 3:0.68000001 4:0.63999999 5:0.64499998 6:0.53750002 7:0.64249998 8:0.75 9:1 #
-0.019774929376371208622487074535456 1:0.85596311 2:0.95802468 3:0.69499999 4:0.815 5:0.61750001 6:0.84500003 7:0.67250001 8:0.60250002 9:1 #
0.019774929376371208622487074535456 1:0.85596311 2:0.96197534 3:0.70749998 4:0.91250002 5:0.71499997 6:0.66500002 7:0.6875 8:0.63249999 9:0 #
0.021972143751523565136096749483841 1:0.81375074 2:0.90617281 3:0.58749998 4:0.84750003 5:0.56 6:0.51999998 7:0.54500002 8:0.58999997 9:1 #
0.021972143751523565136096749483841 1:0.86368352 2:0.88641977 3:0.69999999 4:0.76749998 5:0.755 6:0.60250002 7:0.61250001 8:0.5 9:0 #
-0.028563786876980634676925774328993 1:0.87136549 2:0.74123454 3:0.54000002 4:0.63749999 5:0.5675 6:0.465 7:0.4725 8:0.8075 9:0 #
0.017577715001218852108877399587072 1:0.69621664 2:0.82617283 3:0.5 4:0.63749999 5:0.54500002 6:0.41 7:0.52249998 8:0.5 9:0 #
-0.028563786876980634676925774328993 1:0.25676975 2:0.91111112 3:0.80250001 4:0.95749998 5:0.81999999 6:0.75749999 7:0.77499998 8:0.6875 9:0 #
0.0021972143751523565136096749483841 1:0.84447861 2:0.90419751 3:0.69749999 4:0.76749998 5:0.69499999 6:0.58499998 7:0.69 8:0.69499999 9:0 #
-0.01098607187576178256804837474192 1:0.86560398 2:0.78716052 3:0.75 4:0.86000001 5:0.5 6:0.69499999 7:0.4725 8:0.25 9:1 #
0.0021972143751523565136096749483841 1:0.70616478 2:0.82469136 3:0.41 4:0.63749999 5:0.47749999 6:0.36250001 7:0.45500001 8:0.75 9:0 #
0.01098607187576178256804837474192 1:0.79450738 2:0.79703707 3:0.70999998 4:0.85000002 5:0.685 6:0.70499998 7:0.72500002 8:0.63999999 9:1 #
0.015380500626066495595267724638688 1:0.82143271 2:0.81037039 3:0.73500001 4:0.76499999 5:0.63999999 6:0.67250001 7:0.625 8:0.70749998 9:1 #
-0.013183286250914139081658049690304 1:0.8905704 2:0.97975308 3:0.64999998 4:0.8775 5:0.53250003 6:0.7475 7:0.58999997 8:0.6825 9:0 #
0.017577715001218852108877399587072 1:0.74845397 2:0.8454321 3:0.63499999 4:0.8075 5:0.67250001 6:0.63499999 7:0.75 8:0.6875 9:1 #
-0.013183286250914139081658049690304 1:0.87674284 2:0.80345678 3:0.34 4:0.58999997 5:0.34 6:0.35499999 7:0.30250001 8:-0.25 9:1 #
0.0043944287503047130272193498967681 1:0.93700784 2:0.81530863 3:0.72250003 4:0.72250003 5:0.66750002 6:0.55500001 7:0.77749997 8:-0.25 9:1 #
0.013183286250914139081658049690304 1:0.8905704 2:0.49382716 3:0.69 4:0.67000002 5:0.685 6:0.58999997 7:0.66250002 8:0.77749997 9:1 #
0.021972143751523565136096749483841 1:0.81451893 2:0.81728393 3:0.66000003 4:0.83999997 5:0.57749999 6:0.51999998 7:0.57749999 8:0.5 9:0 #
0.015380500626066495595267724638688 1:0.68327254 2:0.78666669 3:0.66000003 4:0.94749999 5:0.64749998 6:0.51999998 7:0.60750002 8:0.60750002 9:0 #
0.017577715001218852108877399587072 1:0.78532743 2:0.72296298 3:0.60250002 4:0.83499998 5:0.63999999 6:0.55250001 7:0.57749999 8:0.63499999 9:0 #
-0.0065916431254570695408290248451522 1:0.66007298 2:0.90222222 3:0.68000001 4:0.80000001 5:0.61750001 6:0.49000001 7:0.66250002 8:0.75 9:0 #
-0.028563786876980634676925774328993 1:0.8886115 2:0.63358027 3:0.65249997 4:0.63999999 5:0.6825 6:0.60750002 7:0.63249999 8:0.85250002 9:0 #
0.021972143751523565136096749483841 1:0.78874594 2:0.67555553 3:0.67500001 4:0.78250003 5:0.70499998 6:0.65249997 7:0.66250002 8:0.70499998 9:1 #
0.019774929376371208622487074535456 1:0.86364508 2:0.72444445 3:0.61250001 4:0.87 5:0.54000002 6:0.59249997 7:0.51999998 8:0.60750002 9:1 #
-0.026366572501828278163316099380609 1:0.85216057 2:0.77530867 3:0.64249998 4:0.94499999 5:0.60250002 6:0.40000001 7:0.505 8:0.55000001 9:0 #
0.019774929376371208622487074535456 1:0.69468021 2:0.86666667 3:0.69749999 4:0.86000001 5:0.74250001 6:0.65249997 7:0.70249999 8:0.58249998 9:0 #
0.024169358126675921649706424432225 1:0.7987709 2:0.7125926 3:0.72250003 4:0.67000002 5:0.66250002 6:0.64999998 7:0.61750001 8:0.57499999 9:0 #
-0.019774929376371208622487074535456 1:0.85888225 2:0.79358023 3:0.74250001 4:0.77249998 5:0.67750001 6:0.60250002 7:0.6925 8:0.87 9:1 #
-0.024169358126675921649706424432225 1:0.87036681 2:0.83901232 3:0.64999998 4:0.72500002 5:0.63749999 6:0.53250003 7:0.60000002 8:0.625 9:0 #
0.017577715001218852108877399587072 1:0.86748606 2:0.76641977 3:0.57749999 4:0.64999998 5:0.53250003 6:0.51999998 7:0.50999999 8:0.78750002 9:1 #
0.021972143751523565136096749483841 1:0.77146149 2:0.63160491 3:0.61000001 4:0.64749998 5:0.64999998 6:0.55250001 7:0.63499999 8:0.5675 9:0 #
-0.028563786876980634676925774328993 1:0.7820242 2:1 3:0.815 4:0.92500001 5:0.84500003 6:0.72750002 7:0.78750002 8:0.73500001 9:1 #
0.01098607187576178256804837474192 1:0.75993854 2:0.90074074 3:0.69499999 4:0.8725 5:0.69999999 6:0.59750003 7:0.66250002 8:0.73250002 9:0 #
-0.019774929376371208622487074535456 1:0.79450738 2:0.81925929 3:0.72250003 4:0.73500001 5:0.83249998 6:0.64499998 7:0.71499997 8:0.80250001 9:0 #
-0.0021972143751523565136096749483841 1:0.53174573 2:0.62222224 3:0.61250001 4:0.64999998 5:0.64499998 6:0.47749999 7:0.59249997 8:0.62 9:0 #
0.017577715001218852108877399587072 1:0.65627038 2:0.65679014 3:0.57749999 4:0.66500002 5:0.58999997 6:0.47749999 7:0.54000002 8:0.63 9:0 #
-0.028563786876980634676925774328993 1:0.88092953 2:0.89975309 3:0.72500002 4:0.91750002 5:0.78250003 6:0.61500001 7:0.6875 8:0.82249999 9:0 #
-0.028563786876980634676925774328993 1:0.76570004 2:0.94617283 3:0.78250003 4:0.8775 5:0.86250001 6:0.73500001 7:0.755 8:0.85750002 9:1 #
-0.0087888575006094260544386997935362 1:0.78686386 2:0.94320989 3:0.79750001 4:0.94499999 5:0.66250002 6:0.86500001 7:0.685 8:0.5675 9:1 #
-0.026366572501828278163316099380609 1:0.6792779 2:0.91259259 3:0.69499999 4:0.92000002 5:0.69499999 6:0.51249999 7:0.63749999 8:0.82249999 9:0 #
0.017577715001218852108877399587072 1:0.87136549 2:0.81037039 3:0.67750001 4:0.60500002 5:0.60500002 6:0.5575 7:0.63749999 8:0.58249998 9:0 #
0.026366572501828278163316099380609 1:0.82139426 2:0.75506175 3:0.66000003 4:0.745 5:0.67750001 6:0.53250003 7:0.63 8:0.66750002 9:1 #
-0.035155430002437704217754799174145 1:0.57368928 2:0.8632099 3:0.5625 4:0.86500001 5:0.86500001 6:0.83999997 7:0.71499997 8:0.8075 9:1 #
-0.0021972143751523565136096749483841 1:0 2:0.97728395 3:0.87 4:0.97250003 5:0.90499997 6:0.86250001 7:0.875 8:0.815 9:0 #
-0.12743843375883667778936114700628 1:0.66041869 2:0.81481481 3:0.8775 4:0.94 5:0.875 6:0.85000002 7:0.83999997 8:0.84750003 9:0 #
-0.0021972143751523565136096749483841 1:0.91822547 2:0.86814815 3:0.9325 4:0.86000001 5:0.9325 6:0.875 7:0.78750002 8:0.875 9:0 #
-0.079099717505484834489948298141826 1:0.52567697 2:0.8740741 3:0.82999998 4:0.79500002 5:0.86000001 6:0.82749999 7:0.81 8:0.80250001 9:1 #
0.17357993563703616457516432092234 1:0.92898023 2:0.77629632 3:0.69749999 4:0.80000001 5:0.73250002 6:0.71749997 7:0.68000001 8:0.60000002 9:1 #
-0.098874646881856043112435372677282 1:0.42965239 2:0.86469138 3:0.82999998 4:0.94 5:0.84500003 6:0.75749999 7:0.85250002 8:0.76499999 9:0 #
0.030761001252132991190535449277377 1:0.93474168 2:0.705679 3:0.86250001 4:0.69749999 5:0.75 6:0.76749998 7:0.8175 8:0.75 9:1 #
-0.10326907563216075613965472257405 1:0.60053772 2:0.81086421 3:0.82749999 4:0.81 5:0.84500003 6:0.80250001 7:0.85250002 8:0.77249998 9:0 #
-0.0087888575006094260544386997935362 1:0.65838295 2:0.8562963 3:1 4:1 5:0.85000002 6:1 7:0.89999998 8:0.91750002 9:1 #
-0.046141501878199486785803173916065 1:0.64086807 2:0.84444445 3:0.92250001 4:0.90499997 5:0.76999998 6:0.63499999 7:0.6925 8:0.875 9:0 #
0.0043944287503047130272193498967681 1:0.95202613 2:0.8562963 3:0.86250001 4:0.90750003 5:0.77249998 6:0.8175 7:0.7475 8:0.91750002 9:0 #
0.12084679063337960824853212216112 1:0.91073555 2:0.96246916 3:0.7525 4:0.8725 5:0.77999997 6:0.76999998 7:0.78500003 8:0.77499998 9:1 #
-0.032958215627285347704145124225761 1:0.90209335 2:0.94469136 3:0.60750002 4:0.84249997 5:0.60000002 6:0.50749999 7:0.58749998 8:0.76249999 9:0 #
0.16259386376127438200711594618042 1:0.92898023 2:0.90320987 3:0.69999999 4:0.74250001 5:0.76249999 6:0.495 7:0.65249997 8:0.67000002 9:1 #
-0.048338716253351843299412848864449 1:0.90593433 2:0.88444442 3:0.67500001 4:0.69 5:0.63999999 6:0.48500001 7:0.58249998 8:0.75 9:0 #
-0.12084679063337960824853212216112 1:0.43441522 2:0.76148146 3:0.81 4:0.80000001 5:0.88499999 6:0.85000002 7:0.83999997 8:0.82499999 9:0 #
-0.039549858752742417244974149070913 1:0.90977532 2:0.88592595 3:0.73000002 4:0.9375 5:0.58249998 6:0.38749999 7:0.5675 8:0.6875 9:0 #
-0.068113645629723051921899923399906 1:0.41317457 2:0.57580245 3:0.67250001 4:0.75 5:0.78750002 6:0.76999998 7:0.67250001 8:0.75 9:0 #
-0.085691360630941904030777322986978 1:0.28388709 2:0.60839504 3:0.80250001 4:0.83499998 5:0.8075 6:0.72000003 7:0.77999997 8:0.75999999 9:0 #
0.039549858752742417244974149070913 1:0.70451313 2:0.83160496 3:0.75749999 4:0.92500001 5:0.8125 6:0.73000002 7:0.77499998 8:0.79000002 9:0 #
-0.035155430002437704217754799174145 1:0.56024581 2:0.75012344 3:0.77999997 4:0.88499999 5:0.79250002 6:0.685 7:0.75 8:0.71249998 9:1 #
0.068113645629723051921899923399906 1:0.94050318 2:0.76296294 3:0.68000001 4:0.6875 5:0.74000001 6:0.5575 7:0.63749999 8:0.77249998 9:0 #
-0.032958215627285347704145124225761 1:0.96546954 2:0.81086421 3:0.82999998 4:0.79000002 5:0.68000001 6:0.63999999 7:0.79750001 8:0.70749998 9:1 #
0.15600222063581731246628692133527 1:0.71388513 2:0.851358 3:0.76749998 4:0.91500002 5:0.76749998 6:0.67500001 7:0.75749999 8:0.78250003 9:1 #
0.10107186125700839962604504762567 1:0.92971003 2:0.97975308 3:0.73000002 4:0.94 5:0.60000002 6:0.625 7:0.65499997 8:0.69749999 9:1 #
-0.028563786876980634676925774328993 1:0.88573074 2:0.90567899 3:0.83499998 4:0.90499997 5:0.73750001 6:0.63 7:0.7525 8:0.66250002 9:0 #
-0.028563786876980634676925774328993 1:0.82527369 2:0.7214815 3:0.72250003 4:0.82999998 5:0.70249999 6:0.77749997 7:0.70749998 8:0.72500002 9:0 #
-0.028563786876980634676925774328993 1:0.75229502 2:0.64395064 3:0.79750001 4:0.75 5:0.78250003 6:0.85000002 7:0.78250003 8:0.75 9:1 #
-0.028563786876980634676925774328993 1:0.90109468 2:0.85234571 3:0.6225 4:0.83749998 5:0.73500001 6:0.60500002 7:0.77499998 8:0.59500003 9:1 #
-0.028563786876980634676925774328993 1:0.86268485 2:0.81580245 3:0.625 4:0.64499998 5:0.65499997 6:0.51999998 7:0.61500001 8:0.5 9:1 #
-0.028563786876980634676925774328993 1:0.83771843 2:0.80345678 3:0.8175 4:0.88499999 5:0.85500002 6:0.815 7:0.86000001 8:0.69999999 9:1 #
-0.028563786876980634676925774328993 1:0.89748418 2:0.90024692 3:0.6825 4:0.74000001 5:0.73000002 6:0.56999999 7:0.72000003 8:-0.25 9:0 #
-0.028563786876980634676925774328993 1:0.90977532 2:0.79703707 3:0.6875 4:0.72500002 5:0.76749998 6:0.65750003 7:0.745 8:0.60500002 9:1 #
-0.028563786876980634676925774328993 1:0.86368352 2:0.69728392 3:0.625 4:0.67750001 5:0.57249999 6:0.58999997 7:0.66000003 8:0.57499999 9:1 #
-0.028563786876980634676925774328993 1:0.88768965 2:0.92938274 3:0.73750001 4:0.78500003 5:0.80500001 6:0.68000001 7:0.76499999 8:0.64749998 9:0 #
-0.028563786876980634676925774328993 1:0.81375074 2:0.7145679 3:0.67500001 4:0.78250003 5:0.59500003 6:0.53500003 7:0.57999998 8:0.63499999 9:1 #
-0.028563786876980634676925774328993 1:0.88573074 2:0.91604936 3:0.74250001 4:0.89249998 5:0.76249999 6:0.6925 7:0.755 8:0.64499998 9:1 #
-0.028563786876980634676925774328993 1:0.95774919 2:0.6948148 3:0.60000002 4:0.58999997 5:0.64999998 6:0.58999997 7:0.59750003 8:0.4375 9:1 #
-0.028563786876980634676925774328993 1:0.85600156 2:0.71604937 3:0.63749999 4:0.73250002 5:0.63 6:0.60750002 7:0.69749999 8:0.65499997 9:0 #
-0.028563786876980634676925774328993 1:0.72268099 2:0.60740739 3:0.80500001 4:0.65249997 5:0.79250002 6:0.875 7:0.8075 8:0.76249999 9:0 #
-0.028563786876980634676925774328993 1:0.85250622 2:0.93679011 3:0.79250002 4:0.82749999 5:0.8125 6:0.6225 7:0.73750001 8:0.74250001 9:1 #
-0.028563786876980634676925774328993 1:0.74956787 2:0.94222224 3:0.78500003 4:0.84500003 5:0.83749998 6:0.75999999 7:0.80250001 8:0.82249999 9:1 #
-0.028563786876980634676925774328993 1:0.85216057 2:0.65382713 3:0.745 4:0.83249998 5:0.745 6:0.61000001 7:0.77999997 8:0.52249998 9:1 #
-0.028563786876980634676925774328993 1:0.84924144 2:0.90172839 3:0.78250003 4:0.89749998 5:0.79250002 6:0.745 7:0.80000001 8:0.66750002 9:1 #
-0.028563786876980634676925774328993 1:0.82331479 2:0.76296294 3:0.77249998 4:0.77499998 5:0.82499999 6:0.64249998 7:0.75749999 8:0.78250003 9:1 #
-0.028563786876980634676925774328993 1:0.85792202 2:0.67901236 3:0.67750001 4:0.79000002 5:0.72500002 6:0.63499999 7:0.6925 8:0.4375 9:0 #
-0.028563786876980634676925774328993 1:0.89245248 2:0.74172837 3:0.35749999 4:0.42750001 5:0.285 6:0.25 7:0.2075 8:-0.25 9:0 #
-0.028563786876980634676925774328993 1:0.85980409 2:0.94271606 3:0.76499999 4:0.86500001 5:0.89999998 6:0.69499999 7:0.82999998 8:0.80500001 9:0 #
-0.028563786876980634676925774328993 1:0.93067026 2:0.68691361 3:0.65750003 4:0.5625 5:0.6875 6:0.65750003 7:0.65750003 8:0.5 9:0 #
-0.028563786876980634676925774328993 1:0.90589589 2:0.7254321 3:0.64999998 4:0.64999998 5:0.63 6:0.54000002 7:0.64999998 8:0.60750002 9:0 #
-0.028563786876980634676925774328993 1:0.83940852 2:0.90123457 3:0.405 4:0.72500002 5:0.38 6:0.435 7:0.48500001 8:-0.25 9:1 #
-0.028563786876980634676925774328993 1:0.82527369 2:0.96543211 3:0.69749999 4:0.88999999 5:0.755 6:0.625 7:0.65750003 8:0.69999999 9:1 #
-0.028563786876980634676925774328993 1:0.78778565 2:0.84790123 3:0.7525 4:0.80000001 5:0.79500002 6:0.70999998 7:0.76249999 8:0.75 9:1 #
-0.028563786876980634676925774328993 1:0.94526601 2:0.55604941 3:0.565 4:0.52499998 5:0.64249998 6:0.44 7:0.50749999 8:0.5625 9:0 #
-0.028563786876980634676925774328993 1:0.8601498 2:0.97333336 3:0.53250003 4:0.80000001 5:0.63249999 6:0.60500002 7:0.58249998 8:0.51999998 9:1 #
-0.028563786876980634676925774328993 1:0.83648932 2:0.80740738 3:0.80500001 4:0.80500001 5:0.8175 6:0.74000001 7:0.70999998 8:0.71249998 9:1 #
-0.028563786876980634676925774328993 1:0.87432301 2:0.93037039 3:0.67000002 4:0.875 5:0.65750003 6:0.70749998 7:0.61750001 8:0.51499999 9:1 #
-0.028563786876980634676925774328993 1:0.84063762 2:0.81925929 3:0.58749998 4:0.69 5:0.63999999 6:0.60000002 7:0.54750001 8:0.57999998 9:1 #
-0.028563786876980634676925774328993 1:0.8097561 2:0.95160496 3:0.59500003 4:0.8075 5:0.51999998 6:0.51999998 7:0.58249998 8:0.59500003 9:1 #
-0.028563786876980634676925774328993 1:0.82696372 2:0.84691358 3:0.59500003 4:0.5575 5:0.56 6:0.38749999 7:0.53500003 8:0.41749999 9:0 #
-0.028563786876980634676925774328993 1:0.87674284 2:0.88246912 3:0.625 4:0.72250003 5:0.69499999 6:0.73000002 7:0.48500001 8:0.5625 9:0 #
-0.028563786876980634676925774328993 1:0.94430572 2:0.76148146 3:0.69749999 4:0.61750001 5:0.79500002 6:0.60750002 7:0.70249999 8:0.60500002 9:1 #
-0.028563786876980634676925774328993 1:0.88208181 2:0.82222223 3:0.61750001 4:0.875 5:0.60000002 6:0.5675 7:0.63249999 8:0.5 9:0 #
-0.028563786876980634676925774328993 1:0.65738428 2:0.7432099 3:0.66250002 4:0.8125 5:0.73000002 6:0.72250003 7:0.72750002 8:0.75 9:1 #
-0.028563786876980634676925774328993 1:0.85807568 2:0.88049382 3:0.61000001 4:0.6875 5:0.59500003 6:0.47 7:0.57249999 8:-0.25 9:1 #
-0.028563786876980634676925774328993 1:0.82696372 2:0.854321 3:0.685 4:0.67000002 5:0.64499998 6:0.51499999 7:0.58249998 8:0.5 9:0 #
-0.028563786876980634676925774328993 1:0.85024005 2:0.91703701 3:0.48500001 4:0.85000002 5:0.47999999 6:0.4075 7:0.40000001 8:0.51499999 9:0 #
-0.028563786876980634676925774328993 1:0.84447861 2:0.825679 3:0.77749997 4:0.77749997 5:0.83749998 6:0.75 7:0.79250002 8:0.6275 9:0 #
-0.028563786876980634676925774328993 1:0.95970809 2:0.81827158 3:0.77749997 4:0.63249999 5:0.70749998 6:0.70499998 7:0.73500001 8:0.5 9:0 #
-0.028563786876980634676925774328993 1:0.8905704 2:0.81975311 3:0.69749999 4:0.63749999 5:0.72250003 6:0.64499998 7:0.64499998 8:0.60000002 9:1 #
-0.028563786876980634676925774328993 1:0.85404265 2:0.61679012 3:0.66750002 4:0.60500002 5:0.78250003 6:0.84500003 7:0.66750002 8:0.5575 9:0 #
-0.028563786876980634676925774328993 1:0.86940658 2:0.97777778 3:0.76999998 4:0.815 5:0.82499999 6:0.69749999 7:0.77749997 8:0.76249999 9:1 #
-0.028563786876980634676925774328993 1:0.84831959 2:0.82074076 3:0.78250003 4:0.82499999 5:0.75999999 6:0.59750003 7:0.70749998 8:0.75999999 9:1 #
-0.028563786876980634676925774328993 1:0.92175919 2:0.78864199 3:0.61750001 4:0.76499999 5:0.56 6:0.41249999 7:0.51499999 8:0.69999999 9:1 #
-0.028563786876980634676925774328993 1:0.9366622 2:0.88543212 3:0.57749999 4:0.71749997 5:0.53250003 6:0.51999998 7:0.50999999 8:0.25 9:0 #
-0.028563786876980634676925774328993 1:0.85600156 2:0.58024693 3:0.77499998 4:0.5 5:0.75 6:0.625 7:0.69999999 8:0.75 9:1 #
-0.028563786876980634676925774328993 1:0.82296908 2:0.78962964 3:0.91250002 4:0.80500001 5:0.82749999 6:0.90750003 7:0.82999998 8:0.79500002 9:0 #
-0.028563786876980634676925774328993 1:0.87136549 2:0.51506174 3:0.58499998 4:0.84750003 5:0.54500002 6:0.41749999 7:0.565 8:0.4075 9:0 #
-0.028563786876980634676925774328993 1:0.90013444 2:0.79901236 3:0.69749999 4:0.69749999 5:0.70499998 6:0.59500003 7:0.69 8:0.59249997 9:0 #
-0.028563786876980634676925774328993 1:0.88930285 2:0.80839509 3:0.66000003 4:0.61250001 5:0.58999997 6:0.52749997 7:0.54500002 8:0.39250001 9:0 #
-0.028563786876980634676925774328993 1:0.85308242 2:0.8493827 3:0.67000002 4:0.88249999 5:0.7525 6:0.64249998 7:0.66750002 8:0.72250003 9:1 #
-0.028563786876980634676925774328993 1:0.9049741 2:0.78320986 3:0.69499999 4:0.565 5:0.685 6:0.55000001 7:0.60250002 8:0.52749997 9:1 #
-0.028563786876980634676925774328993 1:0.95525253 2:0.82913578 3:0.54250002 4:0.75 5:0.47999999 6:0.54500002 7:0.47499999 8:0.53250003 9:1 #
-0.028563786876980634676925774328993 1:0.91165739 2:0.79555553 3:0.59249997 4:0.80500001 5:0.63999999 6:0.53750002 7:0.57999998 8:-0.25 9:1 #
-0.028563786876980634676925774328993 1:0.77722299 2:0.91259259 3:0.76749998 4:0.72000003 5:0.74000001 6:0.64249998 7:0.69999999 8:0.76749998 9:0 #
-0.028563786876980634676925774328993 1:0.80218935 2:0.8958025 3:0.71749997 4:0.85750002 5:0.75749999 6:0.66500002 7:0.69499999 8:0.57749999 9:1 #
-0.028563786876980634676925774328993 1:0.78686386 2:0.80000001 3:0.79750001 4:0.84500003 5:0.80000001 6:0.75 7:0.76499999 8:0.66750002 9:1 #
-0.028563786876980634676925774328993 1:0.93854427 2:0.65283948 3:0.70499998 4:0.6825 5:0.6875 6:0.67750001 7:0.63749999 8:0.58999997 9:0 #
-0.028563786876980634676925774328993 1:0.83003646 2:0.88 3:0.77499998 4:0.86250001 5:0.85000002 6:0.75999999 7:0.815 8:0.68000001 9:0 #
-0.028563786876980634676925774328993 1:0.86944497 2:0.8296296 3:0.73000002 4:0.82999998 5:0.76999998 6:0.65750003 7:0.72000003 8:0.73250002 9:1 #
-0.028563786876980634676925774328993 1:0.94526601 2:0.95259261 3:0.68000001 4:0.85000002 5:0.55000001 6:0.5625 7:0.58499998 8:0.625 9:1 #
-0.028563786876980634676925774328993 1:0.86894566 2:0.95209879 3:0.77749997 4:0.90249997 5:0.79750001 6:0.94499999 7:0.76999998 8:0.70499998 9:0 #
-0.028563786876980634676925774328993 1:0.74845397 2:0.92839503 3:0.70999998 4:0.82249999 5:0.70499998 6:0.67250001 7:0.75 8:0.67250001 9:0 #
-0.028563786876980634676925774328993 1:0.92702132 2:0.85037035 3:0.6825 4:0.72750002 5:0.72250003 6:0.56 7:0.60000002 8:0.56 9:0 #
-0.028563786876980634676925774328993 1:0.82907623 2:0.93975312 3:0.63999999 4:0.70249999 5:0.68000001 6:0.59750003 7:0.59249997 8:0.83249998 9:0 #
-0.028563786876980634676925774328993 1:0.82753986 2:0.89679015 3:0.65499997 4:0.81 5:0.66000003 6:0.57249999 7:0.565 8:0.63749999 9:0 #
-0.028563786876980634676925774328993 1:0.73539466 2:0.8562963 3:0.73250002 4:0.74000001 5:0.69999999 6:0.64499998 7:0.71249998 8:0.67500001 9:0 #
-0.028563786876980634676925774328993 1:0.91933936 2:0.88987654 3:0.64249998 4:0.64999998 5:0.63499999 6:0.32749999 7:0.60000002 8:-0.25 9:1 #
-0.028563786876980634676925774328993 1:0.78490496 2:0.64987653 3:0.67250001 4:0.66500002 5:0.73500001 6:0.50999999 7:0.64499998 8:0.67750001 9:1 #
-0.028563786876980634676925774328993 1:0.8207413 2:0.54469138 3:0.92000002 4:0.8775 5:0.84750003 6:0.81 7:0.74250001 8:0.96749997 9:1 #
-0.028563786876980634676925774328993 1:0.90977532 2:0.82074076 3:0.54250002 4:0.83249998 5:0.44499999 6:0.51499999 7:0.3475 8:-0.25 9:1 #
-0.028563786876980634676925774328993 1:0.98893797 2:0.64740741 3:0.78250003 4:0.59500003 5:0.72000003 6:0.65750003 7:0.625 8:-0.25 9:1 #
-0.028563786876980634676925774328993 1:0.89437294 2:0.80296296 3:0.73500001 4:0.95749998 5:0.66750002 6:0.47 7:0.61750001 8:-0.25 9:1 #
-0.028563786876980634676925774328993 1:0.85081619 2:0.90370369 3:0.57499999 4:0.84750003 5:0.55250001 6:0.59500003 7:0.64999998 8:0.51749998 9:0 #
-0.028563786876980634676925774328993 1:0.85657769 2:0.81185186 3:0.79250002 4:0.75749999 5:0.77999997 6:0.86750001 7:0.7525 8:0.82249999 9:0 #
-0.028563786876980634676925774328993 1:0.79377759 2:0.86271608 3:0.72500002 4:0.92750001 5:0.79250002 6:0.58249998 7:0.5575 8:1 9:1 #
-0.028563786876980634676925774328993 1:0.91937774 2:0.82123458 3:0.67500001 4:0.63 5:0.5625 6:0.58249998 7:0.62 8:0.625 9:0 #
-0.028563786876980634676925774328993 1:0.84828115 2:0.8296296 3:0.74250001 4:0.77499998 5:0.72250003 6:0.58749998 7:0.68000001 8:0.60000002 9:1 #
-0.028563786876980634676925774328993 1:0.73501056 2:0.50518519 3:0.625 4:0.66000003 5:0.67000002 6:0.55000001 7:0.59500003 8:0.53250003 9:1 #
-0.028563786876980634676925774328993 1:0.84636068 2:0.8493827 3:0.36750001 4:0.77249998 5:0.3475 6:0.3075 7:0.3475 8:0.4375 9:0 #
-0.028563786876980634676925774328993 1:0.86268485 2:0.82222223 3:0.62 4:0.77499998 5:0.57249999 6:0.44999999 7:0.56999999 8:0.53750002 9:1 #
-0.028563786876980634676925774328993 1:0.85980409 2:0.83999997 3:0.69 4:0.82249999 5:0.64749998 6:0.58249998 7:0.63499999 8:0.58249998 9:1 #
-0.028563786876980634676925774328993 1:0.90977532 2:0.78518516 3:0.64749998 4:0.70499998 5:0.67000002 6:0.46000001 7:0.62 8:0.5 9:1 #
-0.028563786876980634676925774328993 1:0.8394469 2:0.93580246 3:0.63749999 4:0.86000001 5:0.5675 6:0.61000001 7:0.625 8:0.60500002 9:1 #
-0.028563786876980634676925774328993 1:0.7730363 2:0.94567901 3:0.66500002 4:0.95749998 5:0.68000001 6:0.58749998 7:0.68000001 8:0.61000001 9:1 #
-0.028563786876980634676925774328993 1:0.71910888 2:0.92592591 3:0.51249999 4:0.72500002 5:0.5625 6:0.38999999 7:0.48750001 8:0.5 9:0 #
-0.028563786876980634676925774328993 1:0.86429805 2:0.97234565 3:0.52749997 4:0.81 5:0.41499999 6:0.33750001 7:0.4425 8:0.58249998 9:1 #
-0.028563786876980634676925774328993 1:0.92859614 2:0.95555556 3:0.58249998 4:0.95749998 5:0.29249999 6:0.5 7:0.29249999 8:-0.25 9:1 #
-0.028563786876980634676925774328993 1:0.81294411 2:0.65530866 3:0.59750003 4:0.72500002 5:0.59500003 6:0.51999998 7:0.57749999 8:0.57749999 9:1 #
-0.028563786876980634676925774328993 1:0.93481851 2:0.85382718 3:0.48249999 4:0.7525 5:0.52999997 6:0.61500001 7:0.48500001 8:0.47749999 9:0 #
-0.028563786876980634676925774328993 1:0.81451893 2:0.83802468 3:0.57999998 4:0.82999998 5:0.41999999 6:0.41749999 7:0.38249999 8:0.75 9:1 #
-0.028563786876980634676925774328993 1:0.76473975 2:0.85333335 3:0.745 4:0.85250002 5:0.7525 6:0.72750002 7:0.745 8:0.75 9:0 #
-0.028563786876980634676925774328993 1:0.87866336 2:0.75259256 3:0.73250002 4:0.67750001 5:0.6825 6:0.49000001 7:0.65249997 8:0.71249998 9:1 #
-0.028563786876980634676925774328993 1:0.95586711 2:0.90814817 3:0.4375 4:0.71249998 5:0.26249999 6:0.45750001 7:0.3125 8:0.5 9:1 #
-0.028563786876980634676925774328993 1:0.83679664 2:0.87555557 3:0.66500002 4:0.78500003 5:0.6825 6:0.66250002 7:0.67250001 8:0.5 9:0 #
-0.028563786876980634676925774328993 1:0.88092953 2:0.6641975 3:0.6925 4:0.69999999 5:0.64999998 6:0.59750003 7:0.6925 8:0.66750002 9:1 #
-0.028563786876980634676925774328993 1:0.76954103 2:0.86962962 3:0.75 4:0.80000001 5:0.70249999 6:0.64999998 7:0.69749999 8:0.6925 9:0 #
-0.028563786876980634676925774328993 1:0.97891301 2:0.74172837 3:0.54500002 4:0.76499999 5:0.44 6:0.4325 7:0.47 8:0.375 9:1 #
-0.028563786876980634676925774328993 1:0.76573843 2:0.82222223 3:0.62 4:0.71249998 5:0.5675 6:0.5 7:0.57499999 8:0.54750001 9:1 #
-0.028563786876980634676925774328993 1:0.77722299 2:0.8691358 3:0.755 4:0.8175 5:0.76999998 6:0.70499998 7:0.75 8:0.71499997 9:0 #
-0.028563786876980634676925774328993 1:0.80218935 2:0.89530861 3:0.66500002 4:0.73500001 5:0.65249997 6:0.5625 7:0.64749998 8:0.69 9:0 #
-0.028563786876980634676925774328993 1:0.77568656 2:0.83012348 3:0.74000001 4:0.89749998 5:0.69499999 6:0.61250001 7:0.67250001 8:0.6825 9:1 #
-0.028563786876980634676925774328993 1:0.8655656 2:0.24543209 3:0.69749999 4:0.78250003 5:0.63249999 6:0.55000001 7:0.57749999 8:0.52749997 9:1 #
-0.028563786876980634676925774328993 1:0.75609756 2:0 3:0.73500001 4:0.8125 5:0.84249997 6:0.72000003 7:0.76249999 8:0.71499997 9:1 #
-0.028563786876980634676925774328993 1:0.81375074 2:0.72395062 3:0.60750002 4:0.92750001 5:0.64249998 6:0.5 7:0.53500003 8:-0.25 9:0 #
-0.028563786876980634676925774328993 1:0.68008453 2:0.76987654 3:0.72750002 4:0.86750001 5:0.72250003 6:0.70749998 7:0.66750002 8:0.57999998 9:1 #
-0.028563786876980634676925774328993 1:0.87067407 2:0.91901237 3:0.69999999 4:0.85000002 5:0.72500002 6:0.67500001 7:0.625 8:0.75 9:1 #
-0.028563786876980634676925774328993 1:0.89053196 2:0.28098765 3:0.685 4:0.6825 5:0.63 6:0.59249997 7:0.60500002 8:0.58249998 9:0 #
-0.028563786876980634676925774328993 1:0.73309004 2:0.83555555 3:0.66250002 4:0.90750003 5:0.60250002 6:0.53250003 7:0.63249999 8:0.53500003 9:0 #
-0.028563786876980634676925774328993 1:0.78302288 2:0.88987654 3:0.76999998 4:0.82999998 5:0.83249998 6:0.75 7:0.78250003 8:0.89249998 9:0 #
-0.028563786876980634676925774328993 1:0.88573074 2:0.67160493 3:0.68000001 4:0.63999999 5:0.64499998 6:0.53750002 7:0.64249998 8:0.75 9:1 #
-0.028563786876980634676925774328993 1:0.85596311 2:0.95802468 3:0.69499999 4:0.815 5:0.61750001 6:0.84500003 7:0.67250001 8:0.60250002 9:1 #
-0.028563786876980634676925774328993 1:0.85596311 2:0.96197534 3:0.70749998 4:0.91250002 5:0.71499997 6:0.66500002 7:0.6875 8:0.63249999 9:0 #
-0.028563786876980634676925774328993 1:0.81375074 2:0.90617281 3:0.58749998 4:0.84750003 5:0.56 6:0.51999998 7:0.54500002 8:0.58999997 9:1 #
-0.028563786876980634676925774328993 1:0.86368352 2:0.88641977 3:0.69999999 4:0.76749998 5:0.755 6:0.60250002 7:0.61250001 8:0.5 9:0 #
-0.028563786876980634676925774328993 1:0.87136549 2:0.74123454 3:0.54000002 4:0.63749999 5:0.5675 6:0.465 7:0.4725 8:0.8075 9:0 #
-0.028563786876980634676925774328993 1:0.69621664 2:0.82617283 3:0.5 4:0.63749999 5:0.54500002 6:0.41 7:0.52249998 8:0.5 9:0 #
-0.028563786876980634676925774328993 1:0.25676975 2:0.91111112 3:0.80250001 4:0.95749998 5:0.81999999 6:0.75749999 7:0.77499998 8:0.6875 9:0 #
-0.028563786876980634676925774328993 1:0.84447861 2:0.90419751 3:0.69749999 4:0.76749998 5:0.69499999 6:0.58499998 7:0.69 8:0.69499999 9:0 #
-0.028563786876980634676925774328993 1:0.86560398 2:0.78716052 3:0.75 4:0.86000001 5:0.5 6:0.69499999 7:0.4725 8:0.25 9:1 #
-0.028563786876980634676925774328993 1:0.70616478 2:0.82469136 3:0.41 4:0.63749999 5:0.47749999 6:0.36250001 7:0.45500001 8:0.75 9:0 #
-0.028563786876980634676925774328993 1:0.79450738 2:0.79703707 3:0.70999998 4:0.85000002 5:0.685 6:0.70499998 7:0.72500002 8:0.63999999 9:1 #
-0.028563786876980634676925774328993 1:0.82143271 2:0.81037039 3:0.73500001 4:0.76499999 5:0.63999999 6:0.67250001 7:0.625 8:0.70749998 9:1 #
-0.028563786876980634676925774328993 1:0.8905704 2:0.97975308 3:0.64999998 4:0.8775 5:0.53250003 6:0.7475 7:0.58999997 8:0.6825 9:0 #
-0.028563786876980634676925774328993 1:0.74845397 2:0.8454321 3:0.63499999 4:0.8075 5:0.67250001 6:0.63499999 7:0.75 8:0.6875 9:1 #
-0.028563786876980634676925774328993 1:0.87674284 2:0.80345678 3:0.34 4:0.58999997 5:0.34 6:0.35499999 7:0.30250001 8:-0.25 9:1 #
-0.028563786876980634676925774328993 1:0.93700784 2:0.81530863 3:0.72250003 4:0.72250003 5:0.66750002 6:0.55500001 7:0.77749997 8:-0.25 9:1 #
-0.028563786876980634676925774328993 1:0.8905704 2:0.49382716 3:0.69 4:0.67000002 5:0.685 6:0.58999997 7:0.66250002 8:0.77749997 9:1 #
-0.028563786876980634676925774328993 1:0.81451893 2:0.81728393 3:0.66000003 4:0.83999997 5:0.57749999 6:0.51999998 7:0.57749999 8:0.5 9:0 #
-0.028563786876980634676925774328993 1:0.68327254 2:0.78666669 3:0.66000003 4:0.94749999 5:0.64749998 6:0.51999998 7:0.60750002 8:0.60750002 9:0 #
-0.028563786876980634676925774328993 1:0.78532743 2:0.72296298 3:0.60250002 4:0.83499998 5:0.63999999 6:0.55250001 7:0.57749999 8:0.63499999 9:0 #
-0.028563786876980634676925774328993 1:0.66007298 2:0.90222222 3:0.68000001 4:0.80000001 5:0.61750001 6:0.49000001 7:0.66250002 8:0.75 9:0 #
-0.028563786876980634676925774328993 1:0.8886115 2:0.63358027 3:0.65249997 4:0.63999999 5:0.6825 6:0.60750002 7:0.63249999 8:0.85250002 9:0 #
-0.028563786876980634676925774328993 1:0.78874594 2:0.67555553 3:0.67500001 4:0.78250003 5:0.70499998 6:0.65249997 7:0.66250002 8:0.70499998 9:1 #
-0.028563786876980634676925774328993 1:0.86364508 2:0.72444445 3:0.61250001 4:0.87 5:0.54000002 6:0.59249997 7:0.51999998 8:0.60750002 9:1 #
-0.028563786876980634676925774328993 1:0.85216057 2:0.77530867 3:0.64249998 4:0.94499999 5:0.60250002 6:0.40000001 7:0.505 8:0.55000001 9:0 #
-0.028563786876980634676925774328993 1:0.69468021 2:0.86666667 3:0.69749999 4:0.86000001 5:0.74250001 6:0.65249997 7:0.70249999 8:0.58249998 9:0 #
-0.028563786876980634676925774328993 1:0.7987709 2:0.7125926 3:0.72250003 4:0.67000002 5:0.66250002 6:0.64999998 7:0.61750001 8:0.57499999 9:0 #
-0.028563786876980634676925774328993 1:0.85888225 2:0.79358023 3:0.74250001 4:0.77249998 5:0.67750001 6:0.60250002 7:0.6925 8:0.87 9:1 #
-0.028563786876980634676925774328993 1:0.87036681 2:0.83901232 3:0.64999998 4:0.72500002 5:0.63749999 6:0.53250003 7:0.60000002 8:0.625 9:0 #
-0.028563786876980634676925774328993 1:0.86748606 2:0.76641977 3:0.57749999 4:0.64999998 5:0.53250003 6:0.51999998 7:0.50999999 8:0.78750002 9:1 #
-0.028563786876980634676925774328993 1:0.77146149 2:0.63160491 3:0.61000001 4:0.64749998 5:0.64999998 6:0.55250001 7:0.63499999 8:0.5675 9:0 #
-0.028563786876980634676925774328993 1:0.7820242 2:1 3:0.815 4:0.92500001 5:0.84500003 6:0.72750002 7:0.78750002 8:0.73500001 9:1 #
-0.028563786876980634676925774328993 1:0.75993854 2:0.90074074 3:0.69499999 4:0.8725 5:0.69999999 6:0.59750003 7:0.66250002 8:0.73250002 9:0 #
-0.028563786876980634676925774328993 1:0.79450738 2:0.81925929 3:0.72250003 4:0.73500001 5:0.83249998 6:0.64499998 7:0.71499997 8:0.80250001 9:0 #
-0.028563786876980634676925774328993 1:0.53174573 2:0.62222224 3:0.61250001 4:0.64999998 5:0.64499998 6:0.47749999 7:0.59249997 8:0.62 9:0 #
-0.028563786876980634676925774328993 1:0.65627038 2:0.65679014 3:0.57749999 4:0.66500002 5:0.58999997 6:0.47749999 7:0.54000002 8:0.63 9:0 #
-0.028563786876980634676925774328993 1:0.88092953 2:0.89975309 3:0.72500002 4:0.91750002 5:0.78250003 6:0.61500001 7:0.6875 8:0.82249999 9:0 #
-0.028563786876980634676925774328993 1:0.76570004 2:0.94617283 3:0.78250003 4:0.8775 5:0.86250001 6:0.73500001 7:0.755 8:0.85750002 9:1 #
-0.028563786876980634676925774328993 1:0.78686386 2:0.94320989 3:0.79750001 4:0.94499999 5:0.66250002 6:0.86500001 7:0.685 8:0.5675 9:1 #
-0.028563786876980634676925774328993 1:0.6792779 2:0.91259259 3:0.69499999 4:0.92000002 5:0.69499999 6:0.51249999 7:0.63749999 8:0.82249999 9:0 #
-0.028563786876980634676925774328993 1:0.87136549 2:0.81037039 3:0.67750001 4:0.60500002 5:0.60500002 6:0.5575 7:0.63749999 8:0.58249998 9:0 #
-0.028563786876980634676925774328993 1:0.82139426 2:0.75506175 3:0.66000003 4:0.745 5:0.67750001 6:0.53250003 7:0.63 8:0.66750002 9:1 #
0.17357993563703616457516432092234 1:0.57368928 2:0.8632099 3:0.5625 4:0.86500001 5:0.86500001 6:0.83999997 7:0.71499997 8:0.8075 9:1 #
0.17357993563703616457516432092234 1:0 2:0.97728395 3:0.87 4:0.97250003 5:0.90499997 6:0.86250001 7:0.875 8:0.815 9:0 #
0.17357993563703616457516432092234 1:0.66041869 2:0.81481481 3:0.8775 4:0.94 5:0.875 6:0.85000002 7:0.83999997 8:0.84750003 9:0 #
0.17357993563703616457516432092234 1:0.91822547 2:0.86814815 3:0.9325 4:0.86000001 5:0.9325 6:0.875 7:0.78750002 8:0.875 9:0 #
0.17357993563703616457516432092234 1:0.52567697 2:0.8740741 3:0.82999998 4:0.79500002 5:0.86000001 6:0.82749999 7:0.81 8:0.80250001 9:1 #
0.17357993563703616457516432092234 1:0.92898023 2:0.77629632 3:0.69749999 4:0.80000001 5:0.73250002 6:0.71749997 7:0.68000001 8:0.60000002 9:1 #
0.17357993563703616457516432092234 1:0.42965239 2:0.86469138 3:0.82999998 4:0.94 5:0.84500003 6:0.75749999 7:0.85250002 8:0.76499999 9:0 #
0.17357993563703616457516432092234 1:0.93474168 2:0.705679 3:0.86250001 4:0.69749999 5:0.75 6:0.76749998 7:0.8175 8:0.75 9:1 #
0.17357993563703616457516432092234 1:0.60053772 2:0.81086421 3:0.82749999 4:0.81 5:0.84500003 6:0.80250001 7:0.85250002 8:0.77249998 9:0 #
0.17357993563703616457516432092234 1:0.65838295 2:0.8562963 3:1 4:1 5:0.85000002 6:1 7:0.89999998 8:0.91750002 9:1 #
0.17357993563703616457516432092234 1:0.64086807 2:0.84444445 3:0.92250001 4:0.90499997 5:0.76999998 6:0.63499999 7:0.6925 8:0.875 9:0 #
0.17357993563703616457516432092234 1:0.95202613 2:0.8562963 3:0.86250001 4:0.90750003 5:0.77249998 6:0.8175 7:0.7475 8:0.91750002 9:0 #
0.17357993563703616457516432092234 1:0.91073555 2:0.96246916 3:0.7525 4:0.8725 5:0.77999997 6:0.76999998 7:0.78500003 8:0.77499998 9:1 #
0.17357993563703616457516432092234 1:0.90209335 2:0.94469136 3:0.60750002 4:0.84249997 5:0.60000002 6:0.50749999 7:0.58749998 8:0.76249999 9:0 #
0.17357993563703616457516432092234 1:0.92898023 2:0.90320987 3:0.69999999 4:0.74250001 5:0.76249999 6:0.495 7:0.65249997 8:0.67000002 9:1 #
0.17357993563703616457516432092234 1:0.90593433 2:0.88444442 3:0.67500001 4:0.69 5:0.63999999 6:0.48500001 7:0.58249998 8:0.75 9:0 #
0.17357993563703616457516432092234 1:0.43441522 2:0.76148146 3:0.81 4:0.80000001 5:0.88499999 6:0.85000002 7:0.83999997 8:0.82499999 9:0 #
0.17357993563703616457516432092234 1:0.90977532 2:0.88592595 3:0.73000002 4:0.9375 5:0.58249998 6:0.38749999 7:0.5675 8:0.6875 9:0 #
0.17357993563703616457516432092234 1:0.41317457 2:0.57580245 3:0.67250001 4:0.75 5:0.78750002 6:0.76999998 7:0.67250001 8:0.75 9:0 #
0.17357993563703616457516432092234 1:0.28388709 2:0.60839504 3:0.80250001 4:0.83499998 5:0.8075 6:0.72000003 7:0.77999997 8:0.75999999 9:0 #
0.17357993563703616457516432092234 1:0.70451313 2:0.83160496 3:0.75749999 4:0.92500001 5:0.8125 6:0.73000002 7:0.77499998 8:0.79000002 9:0 #
0.17357993563703616457516432092234 1:0.56024581 2:0.75012344 3:0.77999997 4:0.88499999 5:0.79250002 6:0.685 7:0.75 8:0.71249998 9:1 #
0.17357993563703616457516432092234 1:0.94050318 2:0.76296294 3:0.68000001 4:0.6875 5:0.74000001 6:0.5575 7:0.63749999 8:0.77249998 9:0 #
0.17357993563703616457516432092234 1:0.96546954 2:0.81086421 3:0.82999998 4:0.79000002 5:0.68000001 6:0.63999999 7:0.79750001 8:0.70749998 9:1 #
0.17357993563703616457516432092234 1:0.71388513 2:0.851358 3:0.76749998 4:0.91500002 5:0.76749998 6:0.67500001 7:0.75749999 8:0.78250003 9:1 #
0.17357993563703616457516432092234 1:0.92971003 2:0.97975308 3:0.73000002 4:0.94 5:0.60000002 6:0.625 7:0.65499997 8:0.69749999 9:1 #
0.035728180690057328994235774644039 1:0.88573074 2:0.90567899 3:0.83499998 4:0.90499997 5:0.73750001 6:0.63 7:0.7525 8:0.66250002 9:0 #
0.042873816828068789241967806447065 1:0.82527369 2:0.7214815 3:0.72250003 4:0.82999998 5:0.70249999 6:0.77749997 7:0.70749998 8:0.72500002 9:0 #
-0.092893269794149052609455452511611 1:0.75229502 2:0.64395064 3:0.79750001 4:0.75 5:0.78250003 6:0.85000002 7:0.78250003 8:0.75 9:1 #
-0.078601997518126118236203581091104 1:0.90109468 2:0.85234571 3:0.6225 4:0.83749998 5:0.73500001 6:0.60500002 7:0.77499998 8:0.59500003 9:1 #
0.064310725242103183862951709670597 1:0.86268485 2:0.81580245 3:0.625 4:0.64499998 5:0.65499997 6:0.51999998 7:0.61500001 8:0.5 9:1 #
-0.092893269794149052609455452511611 1:0.83771843 2:0.80345678 3:0.8175 4:0.88499999 5:0.85500002 6:0.815 7:0.86000001 8:0.69999999 9:1 #
-0.050019452966080256428593742157318 1:0.89748418 2:0.90024692 3:0.6825 4:0.74000001 5:0.73000002 6:0.56999999 7:0.72000003 8:-0.25 9:0 #
-0.092893269794149052609455452511611 1:0.90977532 2:0.79703707 3:0.6875 4:0.72500002 5:0.76749998 6:0.65750003 7:0.745 8:0.60500002 9:1 #
0.064310725242103183862951709670597 1:0.86368352 2:0.69728392 3:0.625 4:0.67750001 5:0.57249999 6:0.58999997 7:0.66000003 8:0.57499999 9:1 #
0.078601997518126118236203581091104 1:0.88768965 2:0.92938274 3:0.73750001 4:0.78500003 5:0.80500001 6:0.68000001 7:0.76499999 8:0.64749998 9:0 #
0.078601997518126118236203581091104 1:0.81375074 2:0.7145679 3:0.67500001 4:0.78250003 5:0.59500003 6:0.53500003 7:0.57999998 8:0.63499999 9:1 #
-0.092893269794149052609455452511611 1:0.88573074 2:0.91604936 3:0.74250001 4:0.89249998 5:0.76249999 6:0.6925 7:0.755 8:0.64499998 9:1 #
0.042873816828068789241967806447065 1:0.95774919 2:0.6948148 3:0.60000002 4:0.58999997 5:0.64999998 6:0.58999997 7:0.59750003 8:0.4375 9:1 #
0.064310725242103183862951709670597 1:0.85600156 2:0.71604937 3:0.63749999 4:0.73250002 5:0.63 6:0.60750002 7:0.69749999 8:0.65499997 9:0 #
-0.057165089104091723615219677867572 1:0.72268099 2:0.60740739 3:0.80500001 4:0.65249997 5:0.79250002 6:0.875 7:0.8075 8:0.76249999 9:0 #
-0.085747633656137578483935612894129 1:0.85250622 2:0.93679011 3:0.79250002 4:0.82749999 5:0.8125 6:0.6225 7:0.73750001 8:0.74250001 9:1 #
-0.092893269794149052609455452511611 1:0.74956787 2:0.94222224 3:0.78500003 4:0.84500003 5:0.83749998 6:0.75999999 7:0.80250001 8:0.82249999 9:1 #
-0.042873816828068789241967806447065 1:0.85216057 2:0.65382713 3:0.745 4:0.83249998 5:0.745 6:0.61000001 7:0.77999997 8:0.52249998 9:1 #
-0.092893269794149052609455452511611 1:0.84924144 2:0.90172839 3:0.78250003 4:0.89749998 5:0.79250002 6:0.745 7:0.80000001 8:0.66750002 9:1 #
-0.028582544552045861807609838933786 1:0.82331479 2:0.76296294 3:0.77249998 4:0.77499998 5:0.82499999 6:0.64249998 7:0.75749999 8:0.78250003 9:1 #
0.064310725242103183862951709670597 1:0.85792202 2:0.67901236 3:0.67750001 4:0.79000002 5:0.72500002 6:0.63499999 7:0.6925 8:0.4375 9:0 #
-0.057165089104091723615219677867572 1:0.89245248 2:0.74172837 3:0.35749999 4:0.42750001 5:0.285 6:0.25 7:0.2075 8:-0.25 9:0 #
-0.078601997518126118236203581091104 1:0.85980409 2:0.94271606 3:0.76499999 4:0.86500001 5:0.89999998 6:0.69499999 7:0.82999998 8:0.80500001 9:0 #
0.064310725242103183862951709670597 1:0.93067026 2:0.68691361 3:0.65750003 4:0.5625 5:0.6875 6:0.65750003 7:0.65750003 8:0.5 9:0 #
0.035728180690057328994235774644039 1:0.90589589 2:0.7254321 3:0.64999998 4:0.64999998 5:0.63 6:0.54000002 7:0.64999998 8:0.60750002 9:0 #
0.021436908414034394620983903223532 1:0.83940852 2:0.90123457 3:0.405 4:0.72500002 5:0.38 6:0.435 7:0.48500001 8:-0.25 9:1 #
-0.078601997518126118236203581091104 1:0.82527369 2:0.96543211 3:0.69749999 4:0.88999999 5:0.755 6:0.625 7:0.65750003 8:0.69999999 9:1 #
-0.064310725242103183862951709670597 1:0.78778565 2:0.84790123 3:0.7525 4:0.80000001 5:0.79500002 6:0.70999998 7:0.76249999 8:0.75 9:1 #
0.021436908414034394620983903223532 1:0.94526601 2:0.55604941 3:0.565 4:0.52499998 5:0.64249998 6:0.44 7:0.50749999 8:0.5625 9:0 #
0.057165089104091723615219677867572 1:0.8601498 2:0.97333336 3:0.53250003 4:0.80000001 5:0.63249999 6:0.60500002 7:0.58249998 8:0.51999998 9:1 #
-0.064310725242103183862951709670597 1:0.83648932 2:0.80740738 3:0.80500001 4:0.80500001 5:0.8175 6:0.74000001 7:0.70999998 8:0.71249998 9:1 #
-0 1:0.87432301 2:0.93037039 3:0.67000002 4:0.875 5:0.65750003 6:0.70749998 7:0.61750001 8:0.51499999 9:1 #
0.064310725242103183862951709670597 1:0.84063762 2:0.81925929 3:0.58749998 4:0.69 5:0.63999999 6:0.60000002 7:0.54750001 8:0.57999998 9:1 #
0.064310725242103183862951709670597 1:0.8097561 2:0.95160496 3:0.59500003 4:0.8075 5:0.51999998 6:0.51999998 7:0.58249998 8:0.59500003 9:1 #
0.042873816828068789241967806447065 1:0.82696372 2:0.84691358 3:0.59500003 4:0.5575 5:0.56 6:0.38749999 7:0.53500003 8:0.41749999 9:0 #
0.064310725242103183862951709670597 1:0.87674284 2:0.88246912 3:0.625 4:0.72250003 5:0.69499999 6:0.73000002 7:0.48500001 8:0.5625 9:0 #
-0.085747633656137578483935612894129 1:0.94430572 2:0.76148146 3:0.69749999 4:0.61750001 5:0.79500002 6:0.60750002 7:0.70249999 8:0.60500002 9:1 #
0.064310725242103183862951709670597 1:0.88208181 2:0.82222223 3:0.61750001 4:0.875 5:0.60000002 6:0.5675 7:0.63249999 8:0.5 9:0 #
-0.092893269794149052609455452511611 1:0.65738428 2:0.7432099 3:0.66250002 4:0.8125 5:0.73000002 6:0.72250003 7:0.72750002 8:0.75 9:1 #
0.042873816828068789241967806447065 1:0.85807568 2:0.88049382 3:0.61000001 4:0.6875 5:0.59500003 6:0.47 7:0.57249999 8:-0.25 9:1 #
0.078601997518126118236203581091104 1:0.82696372 2:0.854321 3:0.685 4:0.67000002 5:0.64499998 6:0.51499999 7:0.58249998 8:0.5 9:0 #
0.021436908414034394620983903223532 1:0.85024005 2:0.91703701 3:0.48500001 4:0.85000002 5:0.47999999 6:0.4075 7:0.40000001 8:0.51499999 9:0 #
0.064310725242103183862951709670597 1:0.84447861 2:0.825679 3:0.77749997 4:0.77749997 5:0.83749998 6:0.75 7:0.79250002 8:0.6275 9:0 #
0.064310725242103183862951709670597 1:0.95970809 2:0.81827158 3:0.77749997 4:0.63249999 5:0.70749998 6:0.70499998 7:0.73500001 8:0.5 9:0 #
-0.064310725242103183862951709670597 1:0.8905704 2:0.81975311 3:0.69749999 4:0.63749999 5:0.72250003 6:0.64499998 7:0.64499998 8:0.60000002 9:1 #
0.042873816828068789241967806447065 1:0.85404265 2:0.61679012 3:0.66750002 4:0.60500002 5:0.78250003 6:0.84500003 7:0.66750002 8:0.5575 9:0 #
-0.092893269794149052609455452511611 1:0.86940658 2:0.97777778 3:0.76999998 4:0.815 5:0.82499999 6:0.69749999 7:0.77749997 8:0.76249999 9:1 #
-0.085747633656137578483935612894129 1:0.84831959 2:0.82074076 3:0.78250003 4:0.82499999 5:0.75999999 6:0.59750003 7:0.70749998 8:0.75999999 9:1 #
0.035728180690057328994235774644039 1:0.92175919 2:0.78864199 3:0.61750001 4:0.76499999 5:0.56 6:0.41249999 7:0.51499999 8:0.69999999 9:1 #
0.021436908414034394620983903223532 1:0.9366622 2:0.88543212 3:0.57749999 4:0.71749997 5:0.53250003 6:0.51999998 7:0.50999999 8:0.25 9:0 #
0.0071456361380114654519024597334464 1:0.85600156 2:0.58024693 3:0.77499998 4:0.5 5:0.75 6:0.625 7:0.69999999 8:0.75 9:1 #
-0.092893269794149052609455452511611 1:0.82296908 2:0.78962964 3:0.91250002 4:0.80500001 5:0.82749999 6:0.90750003 7:0.82999998 8:0.79500002 9:0 #
0.021436908414034394620983903223532 1:0.87136549 2:0.51506174 3:0.58499998 4:0.84750003 5:0.54500002 6:0.41749999 7:0.565 8:0.4075 9:0 #
0.064310725242103183862951709670597 1:0.90013444 2:0.79901236 3:0.69749999 4:0.69749999 5:0.70499998 6:0.59500003 7:0.69 8:0.59249997 9:0 #
0.064310725242103183862951709670597 1:0.88930285 2:0.80839509 3:0.66000003 4:0.61250001 5:0.58999997 6:0.52749997 7:0.54500002 8:0.39250001 9:0 #
-0.071456361380114657988471549288079 1:0.85308242 2:0.8493827 3:0.67000002 4:0.88249999 5:0.7525 6:0.64249998 7:0.66750002 8:0.72250003 9:1 #
0.042873816828068789241967806447065 1:0.9049741 2:0.78320986 3:0.69499999 4:0.565 5:0.685 6:0.55000001 7:0.60250002 8:0.52749997 9:1 #
0.064310725242103183862951709670597 1:0.95525253 2:0.82913578 3:0.54250002 4:0.75 5:0.47999999 6:0.54500002 7:0.47499999 8:0.53250003 9:1 #
0.042873816828068789241967806447065 1:0.91165739 2:0.79555553 3:0.59249997 4:0.80500001 5:0.63999999 6:0.53750002 7:0.57999998 8:-0.25 9:1 #
0.057165089104091723615219677867572 1:0.77722299 2:0.91259259 3:0.76749998 4:0.72000003 5:0.74000001 6:0.64249998 7:0.69999999 8:0.76749998 9:0 #
0.064310725242103183862951709670597 1:0.80218935 2:0.8958025 3:0.71749997 4:0.85750002 5:0.75749999 6:0.66500002 7:0.69499999 8:0.57749999 9:1 #
-0.064310725242103183862951709670597 1:0.78686386 2:0.80000001 3:0.79750001 4:0.84500003 5:0.80000001 6:0.75 7:0.76499999 8:0.66750002 9:1 #
0.057165089104091723615219677867572 1:0.93854427 2:0.65283948 3:0.70499998 4:0.6825 5:0.6875 6:0.67750001 7:0.63749999 8:0.58999997 9:0 #
-0.028582544552045861807609838933786 1:0.83003646 2:0.88 3:0.77499998 4:0.86250001 5:0.85000002 6:0.75999999 7:0.815 8:0.68000001 9:0 #
-0.092893269794149052609455452511611 1:0.86944497 2:0.8296296 3:0.73000002 4:0.82999998 5:0.76999998 6:0.65750003 7:0.72000003 8:0.73250002 9:1 #
-0.092893269794149052609455452511611 1:0.94526601 2:0.95259261 3:0.68000001 4:0.85000002 5:0.55000001 6:0.5625 7:0.58499998 8:0.625 9:1 #
-0.064310725242103183862951709670597 1:0.86894566 2:0.95209879 3:0.77749997 4:0.90249997 5:0.79750001 6:0.94499999 7:0.76999998 8:0.70499998 9:0 #
0.078601997518126118236203581091104 1:0.74845397 2:0.92839503 3:0.70999998 4:0.82249999 5:0.70499998 6:0.67250001 7:0.75 8:0.67250001 9:0 #
0.035728180690057328994235774644039 1:0.92702132 2:0.85037035 3:0.6825 4:0.72750002 5:0.72250003 6:0.56 7:0.60000002 8:0.56 9:0 #
-0.092893269794149052609455452511611 1:0.82907623 2:0.93975312 3:0.63999999 4:0.70249999 5:0.68000001 6:0.59750003 7:0.59249997 8:0.83249998 9:0 #
0.035728180690057328994235774644039 1:0.82753986 2:0.89679015 3:0.65499997 4:0.81 5:0.66000003 6:0.57249999 7:0.565 8:0.63749999 9:0 #
0.078601997518126118236203581091104 1:0.73539466 2:0.8562963 3:0.73250002 4:0.74000001 5:0.69999999 6:0.64499998 7:0.71249998 8:0.67500001 9:0 #
0.021436908414034394620983903223532 1:0.91933936 2:0.88987654 3:0.64249998 4:0.64999998 5:0.63499999 6:0.32749999 7:0.60000002 8:-0.25 9:1 #
0.078601997518126118236203581091104 1:0.78490496 2:0.64987653 3:0.67250001 4:0.66500002 5:0.73500001 6:0.50999999 7:0.64499998 8:0.67750001 9:1 #
-0.064310725242103183862951709670597 1:0.8207413 2:0.54469138 3:0.92000002 4:0.8775 5:0.84750003 6:0.81 7:0.74250001 8:0.96749997 9:1 #
0.021436908414034394620983903223532 1:0.90977532 2:0.82074076 3:0.54250002 4:0.83249998 5:0.44499999 6:0.51499999 7:0.3475 8:-0.25 9:1 #
-0.035728180690057328994235774644039 1:0.98893797 2:0.64740741 3:0.78250003 4:0.59500003 5:0.72000003 6:0.65750003 7:0.625 8:-0.25 9:1 #
-0.021436908414034394620983903223532 1:0.89437294 2:0.80296296 3:0.73500001 4:0.95749998 5:0.66750002 6:0.47 7:0.61750001 8:-0.25 9:1 #
0.064310725242103183862951709670597 1:0.85081619 2:0.90370369 3:0.57499999 4:0.84750003 5:0.55250001 6:0.59500003 7:0.64999998 8:0.51749998 9:0 #
-0.078601997518126118236203581091104 1:0.85657769 2:0.81185186 3:0.79250002 4:0.75749999 5:0.77999997 6:0.86750001 7:0.7525 8:0.82249999 9:0 #
-0.057165089104091723615219677867572 1:0.79377759 2:0.86271608 3:0.72500002 4:0.92750001 5:0.79250002 6:0.58249998 7:0.5575 8:1 9:1 #
-0.028582544552045861807609838933786 1:0.91937774 2:0.82123458 3:0.67500001 4:0.63 5:0.5625 6:0.58249998 7:0.62 8:0.625 9:0 #
-0.028582544552045861807609838933786 1:0.84828115 2:0.8296296 3:0.74250001 4:0.77499998 5:0.72250003 6:0.58749998 7:0.68000001 8:0.60000002 9:1 #
0.042873816828068789241967806447065 1:0.73501056 2:0.50518519 3:0.625 4:0.66000003 5:0.67000002 6:0.55000001 7:0.59500003 8:0.53250003 9:1 #
-0.028582544552045861807609838933786 1:0.84636068 2:0.8493827 3:0.36750001 4:0.77249998 5:0.3475 6:0.3075 7:0.3475 8:0.4375 9:0 #
0.064310725242103183862951709670597 1:0.86268485 2:0.82222223 3:0.62 4:0.77499998 5:0.57249999 6:0.44999999 7:0.56999999 8:0.53750002 9:1 #
0.035728180690057328994235774644039 1:0.85980409 2:0.83999997 3:0.69 4:0.82249999 5:0.64749998 6:0.58249998 7:0.63499999 8:0.58249998 9:1 #
0.035728180690057328994235774644039 1:0.90977532 2:0.78518516 3:0.64749998 4:0.70499998 5:0.67000002 6:0.46000001 7:0.62 8:0.5 9:1 #
0.035728180690057328994235774644039 1:0.8394469 2:0.93580246 3:0.63749999 4:0.86000001 5:0.5675 6:0.61000001 7:0.625 8:0.60500002 9:1 #
-0.021436908414034394620983903223532 1:0.7730363 2:0.94567901 3:0.66500002 4:0.95749998 5:0.68000001 6:0.58749998 7:0.68000001 8:0.61000001 9:1 #
0.050019452966080256428593742157318 1:0.71910888 2:0.92592591 3:0.51249999 4:0.72500002 5:0.5625 6:0.38999999 7:0.48750001 8:0.5 9:0 #
0.035728180690057328994235774644039 1:0.86429805 2:0.97234565 3:0.52749997 4:0.81 5:0.41499999 6:0.33750001 7:0.4425 8:0.58249998 9:1 #
-0.035728180690057328994235774644039 1:0.92859614 2:0.95555556 3:0.58249998 4:0.95749998 5:0.29249999 6:0.5 7:0.29249999 8:-0.25 9:1 #
0.078601997518126118236203581091104 1:0.81294411 2:0.65530866 3:0.59750003 4:0.72500002 5:0.59500003 6:0.51999998 7:0.57749999 8:0.57749999 9:1 #
0.057165089104091723615219677867572 1:0.93481851 2:0.85382718 3:0.48249999 4:0.7525 5:0.52999997 6:0.61500001 7:0.48500001 8:0.47749999 9:0 #
0.021436908414034394620983903223532 1:0.81451893 2:0.83802468 3:0.57999998 4:0.82999998 5:0.41999999 6:0.41749999 7:0.38249999 8:0.75 9:1 #
-0.064310725242103183862951709670597 1:0.76473975 2:0.85333335 3:0.745 4:0.85250002 5:0.7525 6:0.72750002 7:0.745 8:0.75 9:0 #
-0.028582544552045861807609838933786 1:0.87866336 2:0.75259256 3:0.73250002 4:0.67750001 5:0.6825 6:0.49000001 7:0.65249997 8:0.71249998 9:1 #
-0.028582544552045861807609838933786 1:0.95586711 2:0.90814817 3:0.4375 4:0.71249998 5:0.26249999 6:0.45750001 7:0.3125 8:0.5 9:1 #
0.092893269794149052609455452511611 1:0.83679664 2:0.87555557 3:0.66500002 4:0.78500003 5:0.6825 6:0.66250002 7:0.67250001 8:0.5 9:0 #
0.057165089104091723615219677867572 1:0.88092953 2:0.6641975 3:0.6925 4:0.69999999 5:0.64999998 6:0.59750003 7:0.6925 8:0.66750002 9:1 #
0.078601997518126118236203581091104 1:0.76954103 2:0.86962962 3:0.75 4:0.80000001 5:0.70249999 6:0.64999998 7:0.69749999 8:0.6925 9:0 #
0.021436908414034394620983903223532 1:0.97891301 2:0.74172837 3:0.54500002 4:0.76499999 5:0.44 6:0.4325 7:0.47 8:0.375 9:1 #
0.078601997518126118236203581091104 1:0.76573843 2:0.82222223 3:0.62 4:0.71249998 5:0.5675 6:0.5 7:0.57499999 8:0.54750001 9:1 #
0.057165089104091723615219677867572 1:0.77722299 2:0.8691358 3:0.755 4:0.8175 5:0.76999998 6:0.70499998 7:0.75 8:0.71499997 9:0 #
0.021436908414034394620983903223532 1:0.80218935 2:0.89530861 3:0.66500002 4:0.73500001 5:0.65249997 6:0.5625 7:0.64749998 8:0.69 9:0 #
-0.042873816828068789241967806447065 1:0.77568656 2:0.83012348 3:0.74000001 4:0.89749998 5:0.69499999 6:0.61250001 7:0.67250001 8:0.6825 9:1 #
-0.042873816828068789241967806447065 1:0.8655656 2:0.24543209 3:0.69749999 4:0.78250003 5:0.63249999 6:0.55000001 7:0.57749999 8:0.52749997 9:1 #
-0.057165089104091723615219677867572 1:0.75609756 2:0 3:0.73500001 4:0.8125 5:0.84249997 6:0.72000003 7:0.76249999 8:0.71499997 9:1 #
-0.050019452966080256428593742157318 1:0.81375074 2:0.72395062 3:0.60750002 4:0.92750001 5:0.64249998 6:0.5 7:0.53500003 8:-0.25 9:0 #
0.035728180690057328994235774644039 1:0.68008453 2:0.76987654 3:0.72750002 4:0.86750001 5:0.72250003 6:0.70749998 7:0.66750002 8:0.57999998 9:1 #
-0.092893269794149052609455452511611 1:0.87067407 2:0.91901237 3:0.69999999 4:0.85000002 5:0.72500002 6:0.67500001 7:0.625 8:0.75 9:1 #
-0.035728180690057328994235774644039 1:0.89053196 2:0.28098765 3:0.685 4:0.6825 5:0.63 6:0.59249997 7:0.60500002 8:0.58249998 9:0 #
0.064310725242103183862951709670597 1:0.73309004 2:0.83555555 3:0.66250002 4:0.90750003 5:0.60250002 6:0.53250003 7:0.63249999 8:0.53500003 9:0 #
-0.092893269794149052609455452511611 1:0.78302288 2:0.88987654 3:0.76999998 4:0.82999998 5:0.83249998 6:0.75 7:0.78250003 8:0.89249998 9:0 #
0.064310725242103183862951709670597 1:0.88573074 2:0.67160493 3:0.68000001 4:0.63999999 5:0.64499998 6:0.53750002 7:0.64249998 8:0.75 9:1 #
-0.071456361380114657988471549288079 1:0.85596311 2:0.95802468 3:0.69499999 4:0.815 5:0.61750001 6:0.84500003 7:0.67250001 8:0.60250002 9:1 #
0.064310725242103183862951709670597 1:0.85596311 2:0.96197534 3:0.70749998 4:0.91250002 5:0.71499997 6:0.66500002 7:0.6875 8:0.63249999 9:0 #
0.064310725242103183862951709670597 1:0.81375074 2:0.90617281 3:0.58749998 4:0.84750003 5:0.56 6:0.51999998 7:0.54500002 8:0.58999997 9:1 #
0.078601997518126118236203581091104 1:0.86368352 2:0.88641977 3:0.69999999 4:0.76749998 5:0.755 6:0.60250002 7:0.61250001 8:0.5 9:0 #
-0.092893269794149052609455452511611 1:0.87136549 2:0.74123454 3:0.54000002 4:0.63749999 5:0.5675 6:0.465 7:0.4725 8:0.8075 9:0 #
0.064310725242103183862951709670597 1:0.69621664 2:0.82617283 3:0.5 4:0.63749999 5:0.54500002 6:0.41 7:0.52249998 8:0.5 9:0 #
-0.092893269794149052609455452511611 1:0.25676975 2:0.91111112 3:0.80250001 4:0.95749998 5:0.81999999 6:0.75749999 7:0.77499998 8:0.6875 9:0 #
0.035728180690057328994235774644039 1:0.84447861 2:0.90419751 3:0.69749999 4:0.76749998 5:0.69499999 6:0.58499998 7:0.69 8:0.69499999 9:0 #
-0.035728180690057328994235774644039 1:0.86560398 2:0.78716052 3:0.75 4:0.86000001 5:0.5 6:0.69499999 7:0.4725 8:0.25 9:1 #
-0.028582544552045861807609838933786 1:0.70616478 2:0.82469136 3:0.41 4:0.63749999 5:0.47749999 6:0.36250001 7:0.45500001 8:0.75 9:0 #
0.021436908414034394620983903223532 1:0.79450738 2:0.79703707 3:0.70999998 4:0.85000002 5:0.685 6:0.70499998 7:0.72500002 8:0.63999999 9:1 #
0.042873816828068789241967806447065 1:0.82143271 2:0.81037039 3:0.73500001 4:0.76499999 5:0.63999999 6:0.67250001 7:0.625 8:0.70749998 9:1 #
-0.028582544552045861807609838933786 1:0.8905704 2:0.97975308 3:0.64999998 4:0.8775 5:0.53250003 6:0.7475 7:0.58999997 8:0.6825 9:0 #
0.064310725242103183862951709670597 1:0.74845397 2:0.8454321 3:0.63499999 4:0.8075 5:0.67250001 6:0.63499999 7:0.75 8:0.6875 9:1 #
-0.035728180690057328994235774644039 1:0.87674284 2:0.80345678 3:0.34 4:0.58999997 5:0.34 6:0.35499999 7:0.30250001 8:-0.25 9:1 #
0.021436908414034394620983903223532 1:0.93700784 2:0.81530863 3:0.72250003 4:0.72250003 5:0.66750002 6:0.55500001 7:0.77749997 8:-0.25 9:1 #
0.042873816828068789241967806447065 1:0.8905704 2:0.49382716 3:0.69 4:0.67000002 5:0.685 6:0.58999997 7:0.66250002 8:0.77749997 9:1 #
0.078601997518126118236203581091104 1:0.81451893 2:0.81728393 3:0.66000003 4:0.83999997 5:0.57749999 6:0.51999998 7:0.57749999 8:0.5 9:0 #
0.057165089104091723615219677867572 1:0.68327254 2:0.78666669 3:0.66000003 4:0.94749999 5:0.64749998 6:0.51999998 7:0.60750002 8:0.60750002 9:0 #
0.064310725242103183862951709670597 1:0.78532743 2:0.72296298 3:0.60250002 4:0.83499998 5:0.63999999 6:0.55250001 7:0.57749999 8:0.63499999 9:0 #
0.021436908414034394620983903223532 1:0.66007298 2:0.90222222 3:0.68000001 4:0.80000001 5:0.61750001 6:0.49000001 7:0.66250002 8:0.75 9:0 #
-0.092893269794149052609455452511611 1:0.8886115 2:0.63358027 3:0.65249997 4:0.63999999 5:0.6825 6:0.60750002 7:0.63249999 8:0.85250002 9:0 #
0.064310725242103183862951709670597 1:0.78874594 2:0.67555553 3:0.67500001 4:0.78250003 5:0.70499998 6:0.65249997 7:0.66250002 8:0.70499998 9:1 #
0.057165089104091723615219677867572 1:0.86364508 2:0.72444445 3:0.61250001 4:0.87 5:0.54000002 6:0.59249997 7:0.51999998 8:0.60750002 9:1 #
-0.078601997518126118236203581091104 1:0.85216057 2:0.77530867 3:0.64249998 4:0.94499999 5:0.60250002 6:0.40000001 7:0.505 8:0.55000001 9:0 #
0.064310725242103183862951709670597 1:0.69468021 2:0.86666667 3:0.69749999 4:0.86000001 5:0.74250001 6:0.65249997 7:0.70249999 8:0.58249998 9:0 #
0.085747633656137578483935612894129 1:0.7987709 2:0.7125926 3:0.72250003 4:0.67000002 5:0.66250002 6:0.64999998 7:0.61750001 8:0.57499999 9:0 #
-0.064310725242103183862951709670597 1:0.85888225 2:0.79358023 3:0.74250001 4:0.77249998 5:0.67750001 6:0.60250002 7:0.6925 8:0.87 9:1 #
-0.064310725242103183862951709670597 1:0.87036681 2:0.83901232 3:0.64999998 4:0.72500002 5:0.63749999 6:0.53250003 7:0.60000002 8:0.625 9:0 #
0.050019452966080256428593742157318 1:0.86748606 2:0.76641977 3:0.57749999 4:0.64999998 5:0.53250003 6:0.51999998 7:0.50999999 8:0.78750002 9:1 #
0.078601997518126118236203581091104 1:0.77146149 2:0.63160491 3:0.61000001 4:0.64749998 5:0.64999998 6:0.55250001 7:0.63499999 8:0.5675 9:0 #
-0.085747633656137578483935612894129 1:0.7820242 2:1 3:0.815 4:0.92500001 5:0.84500003 6:0.72750002 7:0.78750002 8:0.73500001 9:1 #
0.042873816828068789241967806447065 1:0.75993854 2:0.90074074 3:0.69499999 4:0.8725 5:0.69999999 6:0.59750003 7:0.66250002 8:0.73250002 9:0 #
-0.064310725242103183862951709670597 1:0.79450738 2:0.81925929 3:0.72250003 4:0.73500001 5:0.83249998 6:0.64499998 7:0.71499997 8:0.80250001 9:0 #
0.014291272276022930903804919466893 1:0.53174573 2:0.62222224 3:0.61250001 4:0.64999998 5:0.64499998 6:0.47749999 7:0.59249997 8:0.62 9:0 #
0.064310725242103183862951709670597 1:0.65627038 2:0.65679014 3:0.57749999 4:0.66500002 5:0.58999997 6:0.47749999 7:0.54000002 8:0.63 9:0 #
-0.092893269794149052609455452511611 1:0.88092953 2:0.89975309 3:0.72500002 4:0.91750002 5:0.78250003 6:0.61500001 7:0.6875 8:0.82249999 9:0 #
-0.092893269794149052609455452511611 1:0.76570004 2:0.94617283 3:0.78250003 4:0.8775 5:0.86250001 6:0.73500001 7:0.755 8:0.85750002 9:1 #
-0.035728180690057328994235774644039 1:0.78686386 2:0.94320989 3:0.79750001 4:0.94499999 5:0.66250002 6:0.86500001 7:0.685 8:0.5675 9:1 #
-0.078601997518126118236203581091104 1:0.6792779 2:0.91259259 3:0.69499999 4:0.92000002 5:0.69499999 6:0.51249999 7:0.63749999 8:0.82249999 9:0 #
0.064310725242103183862951709670597 1:0.87136549 2:0.81037039 3:0.67750001 4:0.60500002 5:0.60500002 6:0.5575 7:0.63749999 8:0.58249998 9:0 #
0.078601997518126118236203581091104 1:0.82139426 2:0.75506175 3:0.66000003 4:0.745 5:0.67750001 6:0.53250003 7:0.63 8:0.66750002 9:1 #
-0.085747633656137578483935612894129 1:0.57368928 2:0.8632099 3:0.5625 4:0.86500001 5:0.86500001 6:0.83999997 7:0.71499997 8:0.8075 9:1 #
-0.071456361380114657988471549288079 1:0 2:0.97728395 3:0.87 4:0.97250003 5:0.90499997 6:0.86250001 7:0.875 8:0.815 9:0 #
-0.42873816828068794793082929572847 1:0.66041869 2:0.81481481 3:0.8775 4:0.94 5:0.875 6:0.85000002 7:0.83999997 8:0.84750003 9:0 #
-0.078601997518126118236203581091104 1:0.91822547 2:0.86814815 3:0.9325 4:0.86000001 5:0.9325 6:0.875 7:0.78750002 8:0.875 9:0 #
-0.24295162869238981495634277507634 1:0.52567697 2:0.8740741 3:0.82999998 4:0.79500002 5:0.86000001 6:0.82749999 7:0.81 8:0.80250001 9:1 #
0.55735961876489426014558148381184 1:0.92898023 2:0.77629632 3:0.69749999 4:0.80000001 5:0.73250002 6:0.71749997 7:0.68000001 8:0.60000002 9:1 #
-0.34299053462455031393574245157652 1:0.42965239 2:0.86469138 3:0.82999998 4:0.94 5:0.84500003 6:0.75749999 7:0.85250002 8:0.76499999 9:0 #
0.10718454207017198698270732393212 1:0.93474168 2:0.705679 3:0.86250001 4:0.69749999 5:0.75 6:0.76749998 7:0.8175 8:0.75 9:1 #
-0.35728180690057326218678213081148 1:0.60053772 2:0.81086421 3:0.82749999 4:0.81 5:0.84500003 6:0.80250001 7:0.85250002 8:0.77249998 9:0 #
-0.10003890593216051285718748431464 1:0.65838295 2:0.8562963 3:1 4:1 5:0.85000002 6:1 7:0.89999998 8:0.91750002 9:1 #
-0.22866035641636689446087871147029 1:0.64086807 2:0.84444445 3:0.92250001 4:0.90499997 5:0.76999998 6:0.63499999 7:0.6925 8:0.875 9:0 #
-0.064310725242103183862951709670597 1:0.95202613 2:0.8562963 3:0.86250001 4:0.90750003 5:0.77249998 6:0.8175 7:0.7475 8:0.91750002 9:0 #
0.45732071283273378892175742294057 1:0.91073555 2:0.96246916 3:0.7525 4:0.8725 5:0.77999997 6:0.76999998 7:0.78500003 8:0.77499998 9:1 #
0.028582544552045861807609838933786 1:0.90209335 2:0.94469136 3:0.60750002 4:0.84249997 5:0.60000002 6:0.50749999 7:0.58749998 8:0.76249999 9:0 #
0.45732071283273378892175742294057 1:0.92898023 2:0.90320987 3:0.69999999 4:0.74250001 5:0.76249999 6:0.495 7:0.65249997 8:0.67000002 9:1 #
0.028582544552045861807609838933786 1:0.90593433 2:0.88444442 3:0.67500001 4:0.69 5:0.63999999 6:0.48500001 7:0.58249998 8:0.75 9:0 #
-0.40015562372864205142874993725854 1:0.43441522 2:0.76148146 3:0.81 4:0.80000001 5:0.88499999 6:0.85000002 7:0.83999997 8:0.82499999 9:0 #
-0.085747633656137578483935612894129 1:0.90977532 2:0.88592595 3:0.73000002 4:0.9375 5:0.58249998 6:0.38749999 7:0.5675 8:0.6875 9:0 #
-0.20722344800233249983989480824675 1:0.41317457 2:0.57580245 3:0.67250001 4:0.75 5:0.78750002 6:0.76999998 7:0.67250001 8:0.75 9:0 #
-0.27153417324443568370284651791735 1:0.28388709 2:0.60839504 3:0.80250001 4:0.83499998 5:0.8075 6:0.72000003 7:0.77999997 8:0.75999999 9:0 #
0.18578653958829810521891090502322 1:0.70451313 2:0.83160496 3:0.75749999 4:0.92500001 5:0.8125 6:0.73000002 7:0.77499998 8:0.79000002 9:0 #
-0.085747633656137578483935612894129 1:0.56024581 2:0.75012344 3:0.77999997 4:0.88499999 5:0.79250002 6:0.685 7:0.75 8:0.71249998 9:1 #
0.25724290096841273545180683868239 1:0.94050318 2:0.76296294 3:0.68000001 4:0.6875 5:0.74000001 6:0.5575 7:0.63749999 8:0.77249998 9:0 #
-0.16434963117426371059792700179969 1:0.96546954 2:0.81086421 3:0.82999998 4:0.79000002 5:0.68000001 6:0.63999999 7:0.79750001 8:0.70749998 9:1 #
0.55021398262688281377563725982327 1:0.71388513 2:0.851358 3:0.76749998 4:0.91500002 5:0.76749998 6:0.67500001 7:0.75749999 8:0.78250003 9:1 #
0.20007781186432102571437496862927 1:0.92971003 2:0.97975308 3:0.73000002 4:0.94 5:0.60000002 6:0.625 7:0.65499997 8:0.69749999 9:1 #
-0.092893269794149052609455452511611 1:0.88573074 2:0.90567899 3:0.83499998 4:0.90499997 5:0.73750001 6:0.63 7:0.7525 8:0.66250002 9:0 #
-0.092893269794149052609455452511611 1:0.82527369 2:0.7214815 3:0.72250003 4:0.82999998 5:0.70249999 6:0.77749997 7:0.70749998 8:0.72500002 9:0 #
-0.092893269794149052609455452511611 1:0.75229502 2:0.64395064 3:0.79750001 4:0.75 5:0.78250003 6:0.85000002 7:0.78250003 8:0.75 9:1 #
-0.092893269794149052609455452511611 1:0.90109468 2:0.85234571 3:0.6225 4:0.83749998 5:0.73500001 6:0.60500002 7:0.77499998 8:0.59500003 9:1 #
-0.092893269794149052609455452511611 1:0.86268485 2:0.81580245 3:0.625 4:0.64499998 5:0.65499997 6:0.51999998 7:0.61500001 8:0.5 9:1 #
-0.092893269794149052609455452511611 1:0.83771843 2:0.80345678 3:0.8175 4:0.88499999 5:0.85500002 6:0.815 7:0.86000001 8:0.69999999 9:1 #
-0.092893269794149052609455452511611 1:0.89748418 2:0.90024692 3:0.6825 4:0.74000001 5:0.73000002 6:0.56999999 7:0.72000003 8:-0.25 9:0 #
-0.092893269794149052609455452511611 1:0.90977532 2:0.79703707 3:0.6875 4:0.72500002 5:0.76749998 6:0.65750003 7:0.745 8:0.60500002 9:1 #
-0.092893269794149052609455452511611 1:0.86368352 2:0.69728392 3:0.625 4:0.67750001 5:0.57249999 6:0.58999997 7:0.66000003 8:0.57499999 9:1 #
-0.092893269794149052609455452511611 1:0.88768965 2:0.92938274 3:0.73750001 4:0.78500003 5:0.80500001 6:0.68000001 7:0.76499999 8:0.64749998 9:0 #
-0.092893269794149052609455452511611 1:0.81375074 2:0.7145679 3:0.67500001 4:0.78250003 5:0.59500003 6:0.53500003 7:0.57999998 8:0.63499999 9:1 #
-0.092893269794149052609455452511611 1:0.88573074 2:0.91604936 3:0.74250001 4:0.89249998 5:0.76249999 6:0.6925 7:0.755 8:0.64499998 9:1 #
-0.092893269794149052609455452511611 1:0.95774919 2:0.6948148 3:0.60000002 4:0.58999997 5:0.64999998 6:0.58999997 7:0.59750003 8:0.4375 9:1 #
-0.092893269794149052609455452511611 1:0.85600156 2:0.71604937 3:0.63749999 4:0.73250002 5:0.63 6:0.60750002 7:0.69749999 8:0.65499997 9:0 #
-0.092893269794149052609455452511611 1:0.72268099 2:0.60740739 3:0.80500001 4:0.65249997 5:0.79250002 6:0.875 7:0.8075 8:0.76249999 9:0 #
-0.092893269794149052609455452511611 1:0.85250622 2:0.93679011 3:0.79250002 4:0.82749999 5:0.8125 6:0.6225 7:0.73750001 8:0.74250001 9:1 #
-0.092893269794149052609455452511611 1:0.74956787 2:0.94222224 3:0.78500003 4:0.84500003 5:0.83749998 6:0.75999999 7:0.80250001 8:0.82249999 9:1 #
-0.092893269794149052609455452511611 1:0.85216057 2:0.65382713 3:0.745 4:0.83249998 5:0.745 6:0.61000001 7:0.77999997 8:0.52249998 9:1 #
-0.092893269794149052609455452511611 1:0.84924144 2:0.90172839 3:0.78250003 4:0.89749998 5:0.79250002 6:0.745 7:0.80000001 8:0.66750002 9:1 #
-0.092893269794149052609455452511611 1:0.82331479 2:0.76296294 3:0.77249998 4:0.77499998 5:0.82499999 6:0.64249998 7:0.75749999 8:0.78250003 9:1 #
-0.092893269794149052609455452511611 1:0.85792202 2:0.67901236 3:0.67750001 4:0.79000002 5:0.72500002 6:0.63499999 7:0.6925 8:0.4375 9:0 #
-0.092893269794149052609455452511611 1:0.89245248 2:0.74172837 3:0.35749999 4:0.42750001 5:0.285 6:0.25 7:0.2075 8:-0.25 9:0 #
-0.092893269794149052609455452511611 1:0.85980409 2:0.94271606 3:0.76499999 4:0.86500001 5:0.89999998 6:0.69499999 7:0.82999998 8:0.80500001 9:0 #
-0.092893269794149052609455452511611 1:0.93067026 2:0.68691361 3:0.65750003 4:0.5625 5:0.6875 6:0.65750003 7:0.65750003 8:0.5 9:0 #
-0.092893269794149052609455452511611 1:0.90589589 2:0.7254321 3:0.64999998 4:0.64999998 5:0.63 6:0.54000002 7:0.64999998 8:0.60750002 9:0 #
-0.092893269794149052609455452511611 1:0.83940852 2:0.90123457 3:0.405 4:0.72500002 5:0.38 6:0.435 7:0.48500001 8:-0.25 9:1 #
-0.092893269794149052609455452511611 1:0.82527369 2:0.96543211 3:0.69749999 4:0.88999999 5:0.755 6:0.625 7:0.65750003 8:0.69999999 9:1 #
-0.092893269794149052609455452511611 1:0.78778565 2:0.84790123 3:0.7525 4:0.80000001 5:0.79500002 6:0.70999998 7:0.76249999 8:0.75 9:1 #
-0.092893269794149052609455452511611 1:0.94526601 2:0.55604941 3:0.565 4:0.52499998 5:0.64249998 6:0.44 7:0.50749999 8:0.5625 9:0 #
-0.092893269794149052609455452511611 1:0.8601498 2:0.97333336 3:0.53250003 4:0.80000001 5:0.63249999 6:0.60500002 7:0.58249998 8:0.51999998 9:1 #
-0.092893269794149052609455452511611 1:0.83648932 2:0.80740738 3:0.80500001 4:0.80500001 5:0.8175 6:0.74000001 7:0.70999998 8:0.71249998 9:1 #
-0.092893269794149052609455452511611 1:0.87432301 2:0.93037039 3:0.67000002 4:0.875 5:0.65750003 6:0.70749998 7:0.61750001 8:0.51499999 9:1 #
-0.092893269794149052609455452511611 1:0.84063762 2:0.81925929 3:0.58749998 4:0.69 5:0.63999999 6:0.60000002 7:0.54750001 8:0.57999998 9:1 #
-0.092893269794149052609455452511611 1:0.8097561 2:0.95160496 3:0.59500003 4:0.8075 5:0.51999998 6:0.51999998 7:0.58249998 8:0.59500003 9:1 #
-0.092893269794149052609455452511611 1:0.82696372 2:0.84691358 3:0.59500003 4:0.5575 5:0.56 6:0.38749999 7:0.53500003 8:0.41749999 9:0 #
-0.092893269794149052609455452511611 1:0.87674284 2:0.88246912 3:0.625 4:0.72250003 5:0.69499999 6:0.73000002 7:0.48500001 8:0.5625 9:0 #
-0.092893269794149052609455452511611 1:0.94430572 2:0.76148146 3:0.69749999 4:0.61750001 5:0.79500002 6:0.60750002 7:0.70249999 8:0.60500002 9:1 #
-0.092893269794149052609455452511611 1:0.88208181 2:0.82222223 3:0.61750001 4:0.875 5:0.60000002 6:0.5675 7:0.63249999 8:0.5 9:0 #
-0.092893269794149052609455452511611 1:0.65738428 2:0.7432099 3:0.66250002 4:0.8125 5:0.73000002 6:0.72250003 7:0.72750002 8:0.75 9:1 #
-0.092893269794149052609455452511611 1:0.85807568 2:0.88049382 3:0.61000001 4:0.6875 5:0.59500003 6:0.47 7:0.57249999 8:-0.25 9:1 #
-0.092893269794149052609455452511611 1:0.82696372 2:0.854321 3:0.685 4:0.67000002 5:0.64499998 6:0.51499999 7:0.58249998 8:0.5 9:0 #
-0.092893269794149052609455452511611 1:0.85024005 2:0.91703701 3:0.48500001 4:0.85000002 5:0.47999999 6:0.4075 7:0.40000001 8:0.51499999 9:0 #
-0.092893269794149052609455452511611 1:0.84447861 2:0.825679 3:0.77749997 4:0.77749997 5:0.83749998 6:0.75 7:0.79250002 8:0.6275 9:0 #
-0.092893269794149052609455452511611 1:0.95970809 2:0.81827158 3:0.77749997 4:0.63249999 5:0.70749998 6:0.70499998 7:0.73500001 8:0.5 9:0 #
-0.092893269794149052609455452511611 1:0.8905704 2:0.81975311 3:0.69749999 4:0.63749999 5:0.72250003 6:0.64499998 7:0.64499998 8:0.60000002 9:1 #
-0.092893269794149052609455452511611 1:0.85404265 2:0.61679012 3:0.66750002 4:0.60500002 5:0.78250003 6:0.84500003 7:0.66750002 8:0.5575 9:0 #
-0.092893269794149052609455452511611 1:0.86940658 2:0.97777778 3:0.76999998 4:0.815 5:0.82499999 6:0.69749999 7:0.77749997 8:0.76249999 9:1 #
-0.092893269794149052609455452511611 1:0.84831959 2:0.82074076 3:0.78250003 4:0.82499999 5:0.75999999 6:0.59750003 7:0.70749998 8:0.75999999 9:1 #
-0.092893269794149052609455452511611 1:0.92175919 2:0.78864199 3:0.61750001 4:0.76499999 5:0.56 6:0.41249999 7:0.51499999 8:0.69999999 9:1 #
-0.092893269794149052609455452511611 1:0.9366622 2:0.88543212 3:0.57749999 4:0.71749997 5:0.53250003 6:0.51999998 7:0.50999999 8:0.25 9:0 #
-0.092893269794149052609455452511611 1:0.85600156 2:0.58024693 3:0.77499998 4:0.5 5:0.75 6:0.625 7:0.69999999 8:0.75 9:1 #
-0.092893269794149052609455452511611 1:0.82296908 2:0.78962964 3:0.91250002 4:0.80500001 5:0.82749999 6:0.90750003 7:0.82999998 8:0.79500002 9:0 #
-0.092893269794149052609455452511611 1:0.87136549 2:0.51506174 3:0.58499998 4:0.84750003 5:0.54500002 6:0.41749999 7:0.565 8:0.4075 9:0 #
-0.092893269794149052609455452511611 1:0.90013444 2:0.79901236 3:0.69749999 4:0.69749999 5:0.70499998 6:0.59500003 7:0.69 8:0.59249997 9:0 #
-0.092893269794149052609455452511611 1:0.88930285 2:0.80839509 3:0.66000003 4:0.61250001 5:0.58999997 6:0.52749997 7:0.54500002 8:0.39250001 9:0 #
-0.092893269794149052609455452511611 1:0.85308242 2:0.8493827 3:0.67000002 4:0.88249999 5:0.7525 6:0.64249998 7:0.66750002 8:0.72250003 9:1 #
-0.092893269794149052609455452511611 1:0.9049741 2:0.78320986 3:0.69499999 4:0.565 5:0.685 6:0.55000001 7:0.60250002 8:0.52749997 9:1 #
-0.092893269794149052609455452511611 1:0.95525253 2:0.82913578 3:0.54250002 4:0.75 5:0.47999999 6:0.54500002 7:0.47499999 8:0.53250003 9:1 #
-0.092893269794149052609455452511611 1:0.91165739 2:0.79555553 3:0.59249997 4:0.80500001 5:0.63999999 6:0.53750002 7:0.57999998 8:-0.25 9:1 #
-0.092893269794149052609455452511611 1:0.77722299 2:0.91259259 3:0.76749998 4:0.72000003 5:0.74000001 6:0.64249998 7:0.69999999 8:0.76749998 9:0 #
-0.092893269794149052609455452511611 1:0.80218935 2:0.8958025 3:0.71749997 4:0.85750002 5:0.75749999 6:0.66500002 7:0.69499999 8:0.57749999 9:1 #
-0.092893269794149052609455452511611 1:0.78686386 2:0.80000001 3:0.79750001 4:0.84500003 5:0.80000001 6:0.75 7:0.76499999 8:0.66750002 9:1 #
-0.092893269794149052609455452511611 1:0.93854427 2:0.65283948 3:0.70499998 4:0.6825 5:0.6875 6:0.67750001 7:0.63749999 8:0.58999997 9:0 #
-0.092893269794149052609455452511611 1:0.83003646 2:0.88 3:0.77499998 4:0.86250001 5:0.85000002 6:0.75999999 7:0.815 8:0.68000001 9:0 #
-0.092893269794149052609455452511611 1:0.86944497 2:0.8296296 3:0.73000002 4:0.82999998 5:0.76999998 6:0.65750003 7:0.72000003 8:0.73250002 9:1 #
-0.092893269794149052609455452511611 1:0.94526601 2:0.95259261 3:0.68000001 4:0.85000002 5:0.55000001 6:0.5625 7:0.58499998 8:0.625 9:1 #
-0.092893269794149052609455452511611 1:0.86894566 2:0.95209879 3:0.77749997 4:0.90249997 5:0.79750001 6:0.94499999 7:0.76999998 8:0.70499998 9:0 #
-0.092893269794149052609455452511611 1:0.74845397 2:0.92839503 3:0.70999998 4:0.82249999 5:0.70499998 6:0.67250001 7:0.75 8:0.67250001 9:0 #
-0.092893269794149052609455452511611 1:0.92702132 2:0.85037035 3:0.6825 4:0.72750002 5:0.72250003 6:0.56 7:0.60000002 8:0.56 9:0 #
-0.092893269794149052609455452511611 1:0.82907623 2:0.93975312 3:0.63999999 4:0.70249999 5:0.68000001 6:0.59750003 7:0.59249997 8:0.83249998 9:0 #
-0.092893269794149052609455452511611 1:0.82753986 2:0.89679015 3:0.65499997 4:0.81 5:0.66000003 6:0.57249999 7:0.565 8:0.63749999 9:0 #
-0.092893269794149052609455452511611 1:0.73539466 2:0.8562963 3:0.73250002 4:0.74000001 5:0.69999999 6:0.64499998 7:0.71249998 8:0.67500001 9:0 #
-0.092893269794149052609455452511611 1:0.91933936 2:0.88987654 3:0.64249998 4:0.64999998 5:0.63499999 6:0.32749999 7:0.60000002 8:-0.25 9:1 #
-0.092893269794149052609455452511611 1:0.78490496 2:0.64987653 3:0.67250001 4:0.66500002 5:0.73500001 6:0.50999999 7:0.64499998 8:0.67750001 9:1 #
-0.092893269794149052609455452511611 1:0.8207413 2:0.54469138 3:0.92000002 4:0.8775 5:0.84750003 6:0.81 7:0.74250001 8:0.96749997 9:1 #
-0.092893269794149052609455452511611 1:0.90977532 2:0.82074076 3:0.54250002 4:0.83249998 5:0.44499999 6:0.51499999 7:0.3475 8:-0.25 9:1 #
-0.092893269794149052609455452511611 1:0.98893797 2:0.64740741 3:0.78250003 4:0.59500003 5:0.72000003 6:0.65750003 7:0.625 8:-0.25 9:1 #
-0.092893269794149052609455452511611 1:0.89437294 2:0.80296296 3:0.73500001 4:0.95749998 5:0.66750002 6:0.47 7:0.61750001 8:-0.25 9:1 #
-0.092893269794149052609455452511611 1:0.85081619 2:0.90370369 3:0.57499999 4:0.84750003 5:0.55250001 6:0.59500003 7:0.64999998 8:0.51749998 9:0 #
-0.092893269794149052609455452511611 1:0.85657769 2:0.81185186 3:0.79250002 4:0.75749999 5:0.77999997 6:0.86750001 7:0.7525 8:0.82249999 9:0 #
-0.092893269794149052609455452511611 1:0.79377759 2:0.86271608 3:0.72500002 4:0.92750001 5:0.79250002 6:0.58249998 7:0.5575 8:1 9:1 #
-0.092893269794149052609455452511611 1:0.91937774 2:0.82123458 3:0.67500001 4:0.63 5:0.5625 6:0.58249998 7:0.62 8:0.625 9:0 #
-0.092893269794149052609455452511611 1:0.84828115 2:0.8296296 3:0.74250001 4:0.77499998 5:0.72250003 6:0.58749998 7:0.68000001 8:0.60000002 9:1 #
-0.092893269794149052609455452511611 1:0.73501056 2:0.50518519 3:0.625 4:0.66000003 5:0.67000002 6:0.55000001 7:0.59500003 8:0.53250003 9:1 #
-0.092893269794149052609455452511611 1:0.84636068 2:0.8493827 3:0.36750001 4:0.77249998 5:0.3475 6:0.3075 7:0.3475 8:0.4375 9:0 #
-0.092893269794149052609455452511611 1:0.86268485 2:0.82222223 3:0.62 4:0.77499998 5:0.57249999 6:0.44999999 7:0.56999999 8:0.53750002 9:1 #
-0.092893269794149052609455452511611 1:0.85980409 2:0.83999997 3:0.69 4:0.82249999 5:0.64749998 6:0.58249998 7:0.63499999 8:0.58249998 9:1 #
-0.092893269794149052609455452511611 1:0.90977532 2:0.78518516 3:0.64749998 4:0.70499998 5:0.67000002 6:0.46000001 7:0.62 8:0.5 9:1 #
-0.092893269794149052609455452511611 1:0.8394469 2:0.93580246 3:0.63749999 4:0.86000001 5:0.5675 6:0.61000001 7:0.625 8:0.60500002 9:1 #
-0.092893269794149052609455452511611 1:0.7730363 2:0.94567901 3:0.66500002 4:0.95749998 5:0.68000001 6:0.58749998 7:0.68000001 8:0.61000001 9:1 #
-0.092893269794149052609455452511611 1:0.71910888 2:0.92592591 3:0.51249999 4:0.72500002 5:0.5625 6:0.38999999 7:0.48750001 8:0.5 9:0 #
-0.092893269794149052609455452511611 1:0.86429805 2:0.97234565 3:0.52749997 4:0.81 5:0.41499999 6:0.33750001 7:0.4425 8:0.58249998 9:1 #
-0.092893269794149052609455452511611 1:0.92859614 2:0.95555556 3:0.58249998 4:0.95749998 5:0.29249999 6:0.5 7:0.29249999 8:-0.25 9:1 #
-0.092893269794149052609455452511611 1:0.81294411 2:0.65530866 3:0.59750003 4:0.72500002 5:0.59500003 6:0.51999998 7:0.57749999 8:0.57749999 9:1 #
-0.092893269794149052609455452511611 1:0.93481851 2:0.85382718 3:0.48249999 4:0.7525 5:0.52999997 6:0.61500001 7:0.48500001 8:0.47749999 9:0 #
-0.092893269794149052609455452511611 1:0.81451893 2:0.83802468 3:0.57999998 4:0.82999998 5:0.41999999 6:0.41749999 7:0.38249999 8:0.75 9:1 #
-0.092893269794149052609455452511611 1:0.76473975 2:0.85333335 3:0.745 4:0.85250002 5:0.7525 6:0.72750002 7:0.745 8:0.75 9:0 #
-0.092893269794149052609455452511611 1:0.87866336 2:0.75259256 3:0.73250002 4:0.67750001 5:0.6825 6:0.49000001 7:0.65249997 8:0.71249998 9:1 #
-0.092893269794149052609455452511611 1:0.95586711 2:0.90814817 3:0.4375 4:0.71249998 5:0.26249999 6:0.45750001 7:0.3125 8:0.5 9:1 #
-0.092893269794149052609455452511611 1:0.83679664 2:0.87555557 3:0.66500002 4:0.78500003 5:0.6825 6:0.66250002 7:0.67250001 8:0.5 9:0 #
-0.092893269794149052609455452511611 1:0.88092953 2:0.6641975 3:0.6925 4:0.69999999 5:0.64999998 6:0.59750003 7:0.6925 8:0.66750002 9:1 #
-0.092893269794149052609455452511611 1:0.76954103 2:0.86962962 3:0.75 4:0.80000001 5:0.70249999 6:0.64999998 7:0.69749999 8:0.6925 9:0 #
-0.092893269794149052609455452511611 1:0.97891301 2:0.74172837 3:0.54500002 4:0.76499999 5:0.44 6:0.4325 7:0.47 8:0.375 9:1 #
-0.092893269794149052609455452511611 1:0.76573843 2:0.82222223 3:0.62 4:0.71249998 5:0.5675 6:0.5 7:0.57499999 8:0.54750001 9:1 #
-0.092893269794149052609455452511611 1:0.77722299 2:0.8691358 3:0.755 4:0.8175 5:0.76999998 6:0.70499998 7:0.75 8:0.71499997 9:0 #
-0.092893269794149052609455452511611 1:0.80218935 2:0.89530861 3:0.66500002 4:0.73500001 5:0.65249997 6:0.5625 7:0.64749998 8:0.69 9:0 #
-0.092893269794149052609455452511611 1:0.77568656 2:0.83012348 3:0.74000001 4:0.89749998 5:0.69499999 6:0.61250001 7:0.67250001 8:0.6825 9:1 #
-0.092893269794149052609455452511611 1:0.8655656 2:0.24543209 3:0.69749999 4:0.78250003 5:0.63249999 6:0.55000001 7:0.57749999 8:0.52749997 9:1 #
-0.092893269794149052609455452511611 1:0.75609756 2:0 3:0.73500001 4:0.8125 5:0.84249997 6:0.72000003 7:0.76249999 8:0.71499997 9:1 #
-0.092893269794149052609455452511611 1:0.81375074 2:0.72395062 3:0.60750002 4:0.92750001 5:0.64249998 6:0.5 7:0.53500003 8:-0.25 9:0 #
-0.092893269794149052609455452511611 1:0.68008453 2:0.76987654 3:0.72750002 4:0.86750001 5:0.72250003 6:0.70749998 7:0.66750002 8:0.57999998 9:1 #
-0.092893269794149052609455452511611 1:0.87067407 2:0.91901237 3:0.69999999 4:0.85000002 5:0.72500002 6:0.67500001 7:0.625 8:0.75 9:1 #
-0.092893269794149052609455452511611 1:0.89053196 2:0.28098765 3:0.685 4:0.6825 5:0.63 6:0.59249997 7:0.60500002 8:0.58249998 9:0 #
-0.092893269794149052609455452511611 1:0.73309004 2:0.83555555 3:0.66250002 4:0.90750003 5:0.60250002 6:0.53250003 7:0.63249999 8:0.53500003 9:0 #
-0.092893269794149052609455452511611 1:0.78302288 2:0.88987654 3:0.76999998 4:0.82999998 5:0.83249998 6:0.75 7:0.78250003 8:0.89249998 9:0 #
-0.092893269794149052609455452511611 1:0.88573074 2:0.67160493 3:0.68000001 4:0.63999999 5:0.64499998 6:0.53750002 7:0.64249998 8:0.75 9:1 #
-0.092893269794149052609455452511611 1:0.85596311 2:0.95802468 3:0.69499999 4:0.815 5:0.61750001 6:0.84500003 7:0.67250001 8:0.60250002 9:1 #
-0.092893269794149052609455452511611 1:0.85596311 2:0.96197534 3:0.70749998 4:0.91250002 5:0.71499997 6:0.66500002 7:0.6875 8:0.63249999 9:0 #
-0.092893269794149052609455452511611 1:0.81375074 2:0.90617281 3:0.58749998 4:0.84750003 5:0.56 6:0.51999998 7:0.54500002 8:0.58999997 9:1 #
-0.092893269794149052609455452511611 1:0.86368352 2:0.88641977 3:0.69999999 4:0.76749998 5:0.755 6:0.60250002 7:0.61250001 8:0.5 9:0 #
-0.092893269794149052609455452511611 1:0.87136549 2:0.74123454 3:0.54000002 4:0.63749999 5:0.5675 6:0.465 7:0.4725 8:0.8075 9:0 #
-0.092893269794149052609455452511611 1:0.69621664 2:0.82617283 3:0.5 4:0.63749999 5:0.54500002 6:0.41 7:0.52249998 8:0.5 9:0 #
-0.092893269794149052609455452511611 1:0.25676975 2:0.91111112 3:0.80250001 4:0.95749998 5:0.81999999 6:0.75749999 7:0.77499998 8:0.6875 9:0 #
-0.092893269794149052609455452511611 1:0.84447861 2:0.90419751 3:0.69749999 4:0.76749998 5:0.69499999 6:0.58499998 7:0.69 8:0.69499999 9:0 #
-0.092893269794149052609455452511611 1:0.86560398 2:0.78716052 3:0.75 4:0.86000001 5:0.5 6:0.69499999 7:0.4725 8:0.25 9:1 #
-0.092893269794149052609455452511611 1:0.70616478 2:0.82469136 3:0.41 4:0.63749999 5:0.47749999 6:0.36250001 7:0.45500001 8:0.75 9:0 #
-0.092893269794149052609455452511611 1:0.79450738 2:0.79703707 3:0.70999998 4:0.85000002 5:0.685 6:0.70499998 7:0.72500002 8:0.63999999 9:1 #
-0.092893269794149052609455452511611 1:0.82143271 2:0.81037039 3:0.73500001 4:0.76499999 5:0.63999999 6:0.67250001 7:0.625 8:0.70749998 9:1 #
-0.092893269794149052609455452511611 1:0.8905704 2:0.97975308 3:0.64999998 4:0.8775 5:0.53250003 6:0.7475 7:0.58999997 8:0.6825 9:0 #
-0.092893269794149052609455452511611 1:0.74845397 2:0.8454321 3:0.63499999 4:0.8075 5:0.67250001 6:0.63499999 7:0.75 8:0.6875 9:1 #
-0.092893269794149052609455452511611 1:0.87674284 2:0.80345678 3:0.34 4:0.58999997 5:0.34 6:0.35499999 7:0.30250001 8:-0.25 9:1 #
-0.092893269794149052609455452511611 1:0.93700784 2:0.81530863 3:0.72250003 4:0.72250003 5:0.66750002 6:0.55500001 7:0.77749997 8:-0.25 9:1 #
-0.092893269794149052609455452511611 1:0.8905704 2:0.49382716 3:0.69 4:0.67000002 5:0.685 6:0.58999997 7:0.66250002 8:0.77749997 9:1 #
-0.092893269794149052609455452511611 1:0.81451893 2:0.81728393 3:0.66000003 4:0.83999997 5:0.57749999 6:0.51999998 7:0.57749999 8:0.5 9:0 #
-0.092893269794149052609455452511611 1:0.68327254 2:0.78666669 3:0.66000003 4:0.94749999 5:0.64749998 6:0.51999998 7:0.60750002 8:0.60750002 9:0 #
-0.092893269794149052609455452511611 1:0.78532743 2:0.72296298 3:0.60250002 4:0.83499998 5:0.63999999 6:0.55250001 7:0.57749999 8:0.63499999 9:0 #
-0.092893269794149052609455452511611 1:0.66007298 2:0.90222222 3:0.68000001 4:0.80000001 5:0.61750001 6:0.49000001 7:0.66250002 8:0.75 9:0 #
-0.092893269794149052609455452511611 1:0.8886115 2:0.63358027 3:0.65249997 4:0.63999999 5:0.6825 6:0.60750002 7:0.63249999 8:0.85250002 9:0 #
-0.092893269794149052609455452511611 1:0.78874594 2:0.67555553 3:0.67500001 4:0.78250003 5:0.70499998 6:0.65249997 7:0.66250002 8:0.70499998 9:1 #
-0.092893269794149052609455452511611 1:0.86364508 2:0.72444445 3:0.61250001 4:0.87 5:0.54000002 6:0.59249997 7:0.51999998 8:0.60750002 9:1 #
-0.092893269794149052609455452511611 1:0.85216057 2:0.77530867 3:0.64249998 4:0.94499999 5:0.60250002 6:0.40000001 7:0.505 8:0.55000001 9:0 #
-0.092893269794149052609455452511611 1:0.69468021 2:0.86666667 3:0.69749999 4:0.86000001 5:0.74250001 6:0.65249997 7:0.70249999 8:0.58249998 9:0 #
-0.092893269794149052609455452511611 1:0.7987709 2:0.7125926 3:0.72250003 4:0.67000002 5:0.66250002 6:0.64999998 7:0.61750001 8:0.57499999 9:0 #
-0.092893269794149052609455452511611 1:0.85888225 2:0.79358023 3:0.74250001 4:0.77249998 5:0.67750001 6:0.60250002 7:0.6925 8:0.87 9:1 #
-0.092893269794149052609455452511611 1:0.87036681 2:0.83901232 3:0.64999998 4:0.72500002 5:0.63749999 6:0.53250003 7:0.60000002 8:0.625 9:0 #
-0.092893269794149052609455452511611 1:0.86748606 2:0.76641977 3:0.57749999 4:0.64999998 5:0.53250003 6:0.51999998 7:0.50999999 8:0.78750002 9:1 #
-0.092893269794149052609455452511611 1:0.77146149 2:0.63160491 3:0.61000001 4:0.64749998 5:0.64999998 6:0.55250001 7:0.63499999 8:0.5675 9:0 #
-0.092893269794149052609455452511611 1:0.7820242 2:1 3:0.815 4:0.92500001 5:0.84500003 6:0.72750002 7:0.78750002 8:0.73500001 9:1 #
-0.092893269794149052609455452511611 1:0.75993854 2:0.90074074 3:0.69499999 4:0.8725 5:0.69999999 6:0.59750003 7:0.66250002 8:0.73250002 9:0 #
-0.092893269794149052609455452511611 1:0.79450738 2:0.81925929 3:0.72250003 4:0.73500001 5:0.83249998 6:0.64499998 7:0.71499997 8:0.80250001 9:0 #
-0.092893269794149052609455452511611 1:0.53174573 2:0.62222224 3:0.61250001 4:0.64999998 5:0.64499998 6:0.47749999 7:0.59249997 8:0.62 9:0 #
-0.092893269794149052609455452511611 1:0.65627038 2:0.65679014 3:0.57749999 4:0.66500002 5:0.58999997 6:0.47749999 7:0.54000002 8:0.63 9:0 #
-0.092893269794149052609455452511611 1:0.88092953 2:0.89975309 3:0.72500002 4:0.91750002 5:0.78250003 6:0.61500001 7:0.6875 8:0.82249999 9:0 #
-0.092893269794149052609455452511611 1:0.76570004 2:0.94617283 3:0.78250003 4:0.8775 5:0.86250001 6:0.73500001 7:0.755 8:0.85750002 9:1 #
-0.092893269794149052609455452511611 1:0.78686386 2:0.94320989 3:0.79750001 4:0.94499999 5:0.66250002 6:0.86500001 7:0.685 8:0.5675 9:1 #
-0.092893269794149052609455452511611 1:0.6792779 2:0.91259259 3:0.69499999 4:0.92000002 5:0.69499999 6:0.51249999 7:0.63749999 8:0.82249999 9:0 #
-0.092893269794149052609455452511611 1:0.87136549 2:0.81037039 3:0.67750001 4:0.60500002 5:0.60500002 6:0.5575 7:0.63749999 8:0.58249998 9:0 #
-0.092893269794149052609455452511611 1:0.82139426 2:0.75506175 3:0.66000003 4:0.745 5:0.67750001 6:0.53250003 7:0.63 8:0.66750002 9:1 #
0.56450525490290581753782817031606 1:0.57368928 2:0.8632099 3:0.5625 4:0.86500001 5:0.86500001 6:0.83999997 7:0.71499997 8:0.8075 9:1 #
0.56450525490290581753782817031606 1:0 2:0.97728395 3:0.87 4:0.97250003 5:0.90499997 6:0.86250001 7:0.875 8:0.815 9:0 #
0.56450525490290581753782817031606 1:0.66041869 2:0.81481481 3:0.8775 4:0.94 5:0.875 6:0.85000002 7:0.83999997 8:0.84750003 9:0 #
0.56450525490290581753782817031606 1:0.91822547 2:0.86814815 3:0.9325 4:0.86000001 5:0.9325 6:0.875 7:0.78750002 8:0.875 9:0 #
0.56450525490290581753782817031606 1:0.52567697 2:0.8740741 3:0.82999998 4:0.79500002 5:0.86000001 6:0.82749999 7:0.81 8:0.80250001 9:1 #
0.56450525490290581753782817031606 1:0.92898023 2:0.77629632 3:0.69749999 4:0.80000001 5:0.73250002 6:0.71749997 7:0.68000001 8:0.60000002 9:1 #
0.56450525490290581753782817031606 1:0.42965239 2:0.86469138 3:0.82999998 4:0.94 5:0.84500003 6:0.75749999 7:0.85250002 8:0.76499999 9:0 #
0.56450525490290581753782817031606 1:0.93474168 2:0.705679 3:0.86250001 4:0.69749999 5:0.75 6:0.76749998 7:0.8175 8:0.75 9:1 #
